bookId-chunkNo,F0,F1,F2,F3,F4,F5,F6,F7,F8,F9,F10,F11,F12,F13,F14,F15,F16,F17,F18,F19,F20,F21,F22,F23,F24,F25,F26,F27,F28,F29,F30,F31,F32,F33,F34,F35,F36,F37,F38,F39,F40,F41,F42,F43,F44,F45,F46,F47,F48,F49,F50
pg1257-20,0.0288,0.2705,0.065,0.0697,0.0242,0.0236,0.0273,0.0768,0.0368,0.0006,0.0095,0,0.0072,0.1142,-0.0083,0.031,0.3077,0.1923,0.5,0.6756,0.586,0.194,0.1836,0.278319186,-0.002413337,-0.056007472,-0.001845435,-0.038079807,0.01759206,-0.0911214,-0.001632489,-0.093110506,-0.011700799,-0.007380043,0.06226,0.089351976,0.172528841,0.044395723,0.129973245,0.124711092,0.113487935,0.070708692,0.254842496,0.101285134,0.145325036,0.048515816,0.157665073,0.11177426,0.143285484,0.06806058,0.224088617
pg1257-22,0.0264,0.2225,0.1531,0.066,0.0248,0.026,0.0306,0.0803,0.0384,0.0011,0.0084,0,0.0089,0.1204,-0.0297,0.0249,0.3333,0.2963,0.3704,0.6719,0.5725,0.194,0.1836,0.278319186,-0.002413337,-0.056007472,-0.001845435,-0.038079807,0.01759206,-0.0911214,-0.001632489,-0.093110506,-0.011700799,-0.007380043,0.06226,0.089351976,0.172528841,0.044395723,0.129973245,0.124711092,0.113487935,0.070708692,0.254842496,0.101285134,0.145325036,0.048515816,0.157665073,0.11177426,0.143285484,0.06806058,0.224088617
pg1257-21,0.0371,0.1893,0.0449,0.0628,0.0196,0.0208,0.027,0.0757,0.0464,0.0003,0.0106,0,0.0114,0.1136,-0.1117,0.042,0.3462,0.1154,0.5385,0.735,0.474,0.194,0.1836,0.278319186,-0.002413337,-0.056007472,-0.001845435,-0.038079807,0.01759206,-0.0911214,-0.001632489,-0.093110506,-0.011700799,-0.007380043,0.06226,0.089351976,0.172528841,0.044395723,0.129973245,0.124711092,0.113487935,0.070708692,0.254842496,0.101285134,0.145325036,0.048515816,0.157665073,0.11177426,0.143285484,0.06806058,0.224088617
pg1257-24,0.024,0.153,0.194,0.0842,0.0282,0.0188,0.0267,0.0802,0.0353,0.0012,0.0109,0,0.0128,0.119,-0.0375,0.0237,0.3462,0.1154,0.5385,0.6932,0.6192,0.194,0.1836,0.278319186,-0.002413337,-0.056007472,-0.001845435,-0.038079807,0.01759206,-0.0911214,-0.001632489,-0.093110506,-0.011700799,-0.007380043,0.06226,0.089351976,0.172528841,0.044395723,0.129973245,0.124711092,0.113487935,0.070708692,0.254842496,0.101285134,0.145325036,0.048515816,0.157665073,0.11177426,0.143285484,0.06806058,0.224088617
pg1257-23,0.0189,0.2073,0.2255,0.0707,0.0335,0.0242,0.0302,0.0748,0.0367,0.0007,0.0107,0,0.0063,0.1164,0.013,0.0158,0.1852,0.2593,0.5556,0.6544,0.5252,0.194,0.1836,0.278319186,-0.002413337,-0.056007472,-0.001845435,-0.038079807,0.01759206,-0.0911214,-0.001632489,-0.093110506,-0.011700799,-0.007380043,0.06226,0.089351976,0.172528841,0.044395723,0.129973245,0.124711092,0.113487935,0.070708692,0.254842496,0.101285134,0.145325036,0.048515816,0.157665073,0.11177426,0.143285484,0.06806058,0.224088617
pg1257-26,0.0336,0.293,0.1303,0.0693,0.0266,0.023,0.0239,0.0708,0.0419,0.0007,0.0095,0,0.0126,0.1049,-0.0867,0.0271,0.5185,0.037,0.4444,0.7238,0.5323,0.194,0.1836,0.278319186,-0.002413337,-0.056007472,-0.001845435,-0.038079807,0.01759206,-0.0911214,-0.001632489,-0.093110506,-0.011700799,-0.007380043,0.06226,0.089351976,0.172528841,0.044395723,0.129973245,0.124711092,0.113487935,0.070708692,0.254842496,0.101285134,0.145325036,0.048515816,0.157665073,0.11177426,0.143285484,0.06806058,0.224088617
pg1257-25,0.0249,0.1609,0.1123,0.0844,0.0331,0.0228,0.027,0.0732,0.0408,0.0001,0.0113,0,0.0133,0.1116,-0.0578,0.0213,0.16,0.28,0.56,0.7064,0.5221,0.194,0.1836,0.278319186,-0.002413337,-0.056007472,-0.001845435,-0.038079807,0.01759206,-0.0911214,-0.001632489,-0.093110506,-0.011700799,-0.007380043,0.06226,0.089351976,0.172528841,0.044395723,0.129973245,0.124711092,0.113487935,0.070708692,0.254842496,0.101285134,0.145325036,0.048515816,0.157665073,0.11177426,0.143285484,0.06806058,0.224088617
pg1257-28,0.0293,0.2655,0.2124,0.0605,0.028,0.0276,0.0288,0.0744,0.0447,0.0001,0.0096,0,0.0137,0.1129,-0.0977,0.0218,0.1538,0.1538,0.6923,0.6962,0.3468,0.194,0.1836,0.278319186,-0.002413337,-0.056007472,-0.001845435,-0.038079807,0.01759206,-0.0911214,-0.001632489,-0.093110506,-0.011700799,-0.007380043,0.06226,0.089351976,0.172528841,0.044395723,0.129973245,0.124711092,0.113487935,0.070708692,0.254842496,0.101285134,0.145325036,0.048515816,0.157665073,0.11177426,0.143285484,0.06806058,0.224088617
pg1257-27,0.0417,0.126,0.2061,0.0857,0.0254,0.0217,0.0236,0.0659,0.0409,0.0005,0.0137,0,0.0194,0.1037,-0.1378,0.0422,0.0833,0.2083,0.7083,0.734,0.6577,0.194,0.1836,0.278319186,-0.002413337,-0.056007472,-0.001845435,-0.038079807,0.01759206,-0.0911214,-0.001632489,-0.093110506,-0.011700799,-0.007380043,0.06226,0.089351976,0.172528841,0.044395723,0.129973245,0.124711092,0.113487935,0.070708692,0.254842496,0.101285134,0.145325036,0.048515816,0.157665073,0.11177426,0.143285484,0.06806058,0.224088617
pg1257-29,0.0353,0.3197,0.0781,0.0736,0.0331,0.0252,0.0282,0.073,0.0428,0.0004,0.0113,0,0.0081,0.1129,-0.0575,0.0288,0.24,0.28,0.48,0.6394,0.6582,0.194,0.1836,0.278319186,-0.002413337,-0.056007472,-0.001845435,-0.038079807,0.01759206,-0.0911214,-0.001632489,-0.093110506,-0.011700799,-0.007380043,0.06226,0.089351976,0.172528841,0.044395723,0.129973245,0.124711092,0.113487935,0.070708692,0.254842496,0.101285134,0.145325036,0.048515816,0.157665073,0.11177426,0.143285484,0.06806058,0.224088617
pg1257-11,0.0265,0.3381,0.0641,0.0658,0.0247,0.0279,0.0318,0.0723,0.0366,0.0003,0.0097,0,0.0086,0.1141,-0.0358,0.0233,0.1481,0.4074,0.4444,0.6931,0.5624,0.194,0.1836,0.278319186,-0.002413337,-0.056007472,-0.001845435,-0.038079807,0.01759206,-0.0911214,-0.001632489,-0.093110506,-0.011700799,-0.007380043,0.06226,0.089351976,0.172528841,0.044395723,0.129973245,0.124711092,0.113487935,0.070708692,0.254842496,0.101285134,0.145325036,0.048515816,0.157665073,0.11177426,0.143285484,0.06806058,0.224088617
pg1257-10,0.0274,0.3512,0.0492,0.066,0.0234,0.0286,0.0321,0.0695,0.0421,0.0001,0.0087,0,0.0062,0.1104,-0.0491,0.0241,0.1154,0.1538,0.7308,0.721,0.5161,0.194,0.1836,0.278319186,-0.002413337,-0.056007472,-0.001845435,-0.038079807,0.01759206,-0.0911214,-0.001632489,-0.093110506,-0.011700799,-0.007380043,0.06226,0.089351976,0.172528841,0.044395723,0.129973245,0.124711092,0.113487935,0.070708692,0.254842496,0.101285134,0.145325036,0.048515816,0.157665073,0.11177426,0.143285484,0.06806058,0.224088617
pg1257-13,0.0252,0.2696,0.0119,0.0749,0.026,0.0218,0.0274,0.0813,0.0379,0.0004,0.0099,0.0005,0.0131,0.1195,-0.0639,0.0275,0.1538,0.3462,0.5,0.685,0.5046,0.194,0.1836,0.278319186,-0.002413337,-0.056007472,-0.001845435,-0.038079807,0.01759206,-0.0911214,-0.001632489,-0.093110506,-0.011700799,-0.007380043,0.06226,0.089351976,0.172528841,0.044395723,0.129973245,0.124711092,0.113487935,0.070708692,0.254842496,0.101285134,0.145325036,0.048515816,0.157665073,0.11177426,0.143285484,0.06806058,0.224088617
pg1257-12,0.0273,0.3748,0.018,0.0761,0.0293,0.0282,0.0273,0.0731,0.0355,0.0001,0.0084,0.0001,0.0089,0.109,-0.0234,0.0277,0.3333,0.1667,0.5,0.6978,0.548,0.194,0.1836,0.278319186,-0.002413337,-0.056007472,-0.001845435,-0.038079807,0.01759206,-0.0911214,-0.001632489,-0.093110506,-0.011700799,-0.007380043,0.06226,0.089351976,0.172528841,0.044395723,0.129973245,0.124711092,0.113487935,0.070708692,0.254842496,0.101285134,0.145325036,0.048515816,0.157665073,0.11177426,0.143285484,0.06806058,0.224088617
pg1257-15,0.0278,0.289,0.1372,0.0679,0.0276,0.0247,0.0268,0.0748,0.038,0.0001,0.0093,0,0.0086,0.111,-0.0252,0.0232,0.2692,0.1538,0.5769,0.6661,0.3918,0.194,0.1836,0.278319186,-0.002413337,-0.056007472,-0.001845435,-0.038079807,0.01759206,-0.0911214,-0.001632489,-0.093110506,-0.011700799,-0.007380043,0.06226,0.089351976,0.172528841,0.044395723,0.129973245,0.124711092,0.113487935,0.070708692,0.254842496,0.101285134,0.145325036,0.048515816,0.157665073,0.11177426,0.143285484,0.06806058,0.224088617
pg1257-14,0.0355,0.2111,0.0401,0.0733,0.029,0.0213,0.0242,0.0742,0.0488,0.0002,0.0098,0,0.0145,0.1084,-0.1471,0.0393,0.2308,0.1923,0.5769,0.7685,0.7466,0.194,0.1836,0.278319186,-0.002413337,-0.056007472,-0.001845435,-0.038079807,0.01759206,-0.0911214,-0.001632489,-0.093110506,-0.011700799,-0.007380043,0.06226,0.089351976,0.172528841,0.044395723,0.129973245,0.124711092,0.113487935,0.070708692,0.254842496,0.101285134,0.145325036,0.048515816,0.157665073,0.11177426,0.143285484,0.06806058,0.224088617
pg1257-17,0.0317,0.254,0.2063,0.0856,0.0278,0.0255,0.0276,0.0671,0.0423,0.0004,0.0111,0,0.0111,0.1062,-0.0867,0.0294,0.3846,0.1923,0.4231,0.6944,0.6758,0.194,0.1836,0.278319186,-0.002413337,-0.056007472,-0.001845435,-0.038079807,0.01759206,-0.0911214,-0.001632489,-0.093110506,-0.011700799,-0.007380043,0.06226,0.089351976,0.172528841,0.044395723,0.129973245,0.124711092,0.113487935,0.070708692,0.254842496,0.101285134,0.145325036,0.048515816,0.157665073,0.11177426,0.143285484,0.06806058,0.224088617
pg1257-16,0.0319,0.295,0.1036,0.0682,0.0274,0.0248,0.0252,0.0733,0.0396,0.0009,0.0106,0,0.0129,0.11,-0.0677,0.028,0.0769,0.1538,0.7692,0.6958,0.5196,0.194,0.1836,0.278319186,-0.002413337,-0.056007472,-0.001845435,-0.038079807,0.01759206,-0.0911214,-0.001632489,-0.093110506,-0.011700799,-0.007380043,0.06226,0.089351976,0.172528841,0.044395723,0.129973245,0.124711092,0.113487935,0.070708692,0.254842496,0.101285134,0.145325036,0.048515816,0.157665073,0.11177426,0.143285484,0.06806058,0.224088617
pg1257-19,0.0261,0.375,0.0642,0.0655,0.0249,0.0243,0.0303,0.072,0.036,0.0004,0.0097,0,0.0081,0.1124,0.0098,0.018,0.1481,0.1852,0.6667,0.6526,0.2529,0.194,0.1836,0.278319186,-0.002413337,-0.056007472,-0.001845435,-0.038079807,0.01759206,-0.0911214,-0.001632489,-0.093110506,-0.011700799,-0.007380043,0.06226,0.089351976,0.172528841,0.044395723,0.129973245,0.124711092,0.113487935,0.070708692,0.254842496,0.101285134,0.145325036,0.048515816,0.157665073,0.11177426,0.143285484,0.06806058,0.224088617
pg1257-18,0.0314,0.2505,0.0466,0.0823,0.0251,0.0206,0.029,0.0749,0.0401,0.0003,0.0105,0.0001,0.0098,0.1148,-0.0578,0.0321,0.2692,0.1154,0.6154,0.6912,0.5772,0.194,0.1836,0.278319186,-0.002413337,-0.056007472,-0.001845435,-0.038079807,0.01759206,-0.0911214,-0.001632489,-0.093110506,-0.011700799,-0.007380043,0.06226,0.089351976,0.172528841,0.044395723,0.129973245,0.124711092,0.113487935,0.070708692,0.254842496,0.101285134,0.145325036,0.048515816,0.157665073,0.11177426,0.143285484,0.06806058,0.224088617
pg1257-1,0.0144,0.5246,0.0156,0.0514,0.0319,0.028,0.032,0.0792,0.0274,0.0002,0.0083,0,0.0046,0.1197,0.1769,0.0112,0.2083,0.2917,0.5,0.5618,0.4445,0.194,0.1836,0.278319186,-0.002413337,-0.056007472,-0.001845435,-0.038079807,0.01759206,-0.0911214,-0.001632489,-0.093110506,-0.011700799,-0.007380043,0.06226,0.089351976,0.172528841,0.044395723,0.129973245,0.124711092,0.113487935,0.070708692,0.254842496,0.101285134,0.145325036,0.048515816,0.157665073,0.11177426,0.143285484,0.06806058,0.224088617
pg1257-2,0.0187,0.3455,0.0079,0.0767,0.0249,0.0224,0.0304,0.0787,0.0317,0.0004,0.0089,0.0001,0.0105,0.1185,0.0228,0.0213,0.1923,0.2692,0.5385,0.6477,0.4971,0.194,0.1836,0.278319186,-0.002413337,-0.056007472,-0.001845435,-0.038079807,0.01759206,-0.0911214,-0.001632489,-0.093110506,-0.011700799,-0.007380043,0.06226,0.089351976,0.172528841,0.044395723,0.129973245,0.124711092,0.113487935,0.070708692,0.254842496,0.101285134,0.145325036,0.048515816,0.157665073,0.11177426,0.143285484,0.06806058,0.224088617
pg1257-7,0.0345,0.3413,0.0913,0.0674,0.0246,0.0242,0.028,0.0779,0.038,0.0001,0.0091,0,0.0102,0.1151,-0.0578,0.0336,0.2593,0.0741,0.6667,0.6605,0.5719,0.194,0.1836,0.278319186,-0.002413337,-0.056007472,-0.001845435,-0.038079807,0.01759206,-0.0911214,-0.001632489,-0.093110506,-0.011700799,-0.007380043,0.06226,0.089351976,0.172528841,0.044395723,0.129973245,0.124711092,0.113487935,0.070708692,0.254842496,0.101285134,0.145325036,0.048515816,0.157665073,0.11177426,0.143285484,0.06806058,0.224088617
pg1257-8,0.029,0.2112,0.1533,0.0717,0.0268,0.0221,0.0287,0.0779,0.0368,0.0002,0.0096,0,0.0096,0.1164,-0.0243,0.029,0.1481,0.2593,0.5926,0.6933,0.5059,0.194,0.1836,0.278319186,-0.002413337,-0.056007472,-0.001845435,-0.038079807,0.01759206,-0.0911214,-0.001632489,-0.093110506,-0.011700799,-0.007380043,0.06226,0.089351976,0.172528841,0.044395723,0.129973245,0.124711092,0.113487935,0.070708692,0.254842496,0.101285134,0.145325036,0.048515816,0.157665073,0.11177426,0.143285484,0.06806058,0.224088617
pg1257-9,0.0379,0.1853,0.0737,0.0885,0.0227,0.0212,0.0266,0.0715,0.0436,0.0001,0.0091,0,0.0125,0.1073,-0.1231,0.0402,0.2692,0.3462,0.3846,0.7409,0.5346,0.194,0.1836,0.278319186,-0.002413337,-0.056007472,-0.001845435,-0.038079807,0.01759206,-0.0911214,-0.001632489,-0.093110506,-0.011700799,-0.007380043,0.06226,0.089351976,0.172528841,0.044395723,0.129973245,0.124711092,0.113487935,0.070708692,0.254842496,0.101285134,0.145325036,0.048515816,0.157665073,0.11177426,0.143285484,0.06806058,0.224088617
pg1257-3,0.0238,0.3194,0,0.0713,0.0267,0.0219,0.0318,0.0866,0.0355,0.0002,0.0093,0,0.0079,0.1279,0.0088,0.0255,0.2308,0.1923,0.5769,0.6679,0.5822,0.194,0.1836,0.278319186,-0.002413337,-0.056007472,-0.001845435,-0.038079807,0.01759206,-0.0911214,-0.001632489,-0.093110506,-0.011700799,-0.007380043,0.06226,0.089351976,0.172528841,0.044395723,0.129973245,0.124711092,0.113487935,0.070708692,0.254842496,0.101285134,0.145325036,0.048515816,0.157665073,0.11177426,0.143285484,0.06806058,0.224088617
pg1257-4,0.0204,0.401,0.0313,0.0716,0.0274,0.0251,0.0321,0.0809,0.0336,0.0001,0.0083,0,0.0072,0.1214,0.0295,0.0178,0.24,0.2,0.56,0.642,0.4188,0.194,0.1836,0.278319186,-0.002413337,-0.056007472,-0.001845435,-0.038079807,0.01759206,-0.0911214,-0.001632489,-0.093110506,-0.011700799,-0.007380043,0.06226,0.089351976,0.172528841,0.044395723,0.129973245,0.124711092,0.113487935,0.070708692,0.254842496,0.101285134,0.145325036,0.048515816,0.157665073,0.11177426,0.143285484,0.06806058,0.224088617
pg1257-5,0.0315,0.2736,0.0608,0.0721,0.0233,0.0239,0.0308,0.0793,0.0363,0.0002,0.0107,0,0.0106,0.121,-0.0442,0.0329,0.2593,0.1852,0.5556,0.692,0.5551,0.194,0.1836,0.278319186,-0.002413337,-0.056007472,-0.001845435,-0.038079807,0.01759206,-0.0911214,-0.001632489,-0.093110506,-0.011700799,-0.007380043,0.06226,0.089351976,0.172528841,0.044395723,0.129973245,0.124711092,0.113487935,0.070708692,0.254842496,0.101285134,0.145325036,0.048515816,0.157665073,0.11177426,0.143285484,0.06806058,0.224088617
pg1257-6,0.0269,0.1679,0.1038,0.086,0.0248,0.0239,0.0296,0.0743,0.0381,0.0001,0.0119,0,0.0143,0.1159,-0.0684,0.0249,0.2222,0.2963,0.4815,0.7246,0.437,0.194,0.1836,0.278319186,-0.002413337,-0.056007472,-0.001845435,-0.038079807,0.01759206,-0.0911214,-0.001632489,-0.093110506,-0.011700799,-0.007380043,0.06226,0.089351976,0.172528841,0.044395723,0.129973245,0.124711092,0.113487935,0.070708692,0.254842496,0.101285134,0.145325036,0.048515816,0.157665073,0.11177426,0.143285484,0.06806058,0.224088617
pg92-1,0.0124,0.6398,0.0123,0.0636,0.0258,0.0229,0.0406,0.046,0.0368,0,0.003,0.0041,0.0007,0.0937,0.088,0.0056,0.2308,0.1538,0.6154,0.6062,0.1308,0.1267,-0.2304,0.11126429,-0.018704516,0.002750153,0.092154415,-0.056317791,0.005783479,-0.038478871,-0.032746272,-0.019217781,-0.046487106,-0.003845924,0.07543,0.130728023,0.145157628,0.078171538,0.228693365,0.075651776,0.132849365,0.063412281,0.145336025,0.132401861,0.130063745,0.074334624,0.209144589,0.076662038,0.145764061,0.073550442,0.15807864
pg92-2,0.0173,0.5626,0.0643,0.0563,0.0308,0.026,0.0347,0.0482,0.0463,0.0001,0.0046,0.0029,0.0021,0.0905,-0.0358,0.005,0.12,0.28,0.6,0.6363,0.6523,0.1267,-0.2304,0.11126429,-0.018704516,0.002750153,0.092154415,-0.056317791,0.005783479,-0.038478871,-0.032746272,-0.019217781,-0.046487106,-0.003845924,0.07543,0.130728023,0.145157628,0.078171538,0.228693365,0.075651776,0.132849365,0.063412281,0.145336025,0.132401861,0.130063745,0.074334624,0.209144589,0.076662038,0.145764061,0.073550442,0.15807864
pg92-3,0.0114,0.5577,0.1406,0.0554,0.0321,0.0213,0.0405,0.042,0.0415,0.0001,0.004,0.0025,0.0013,0.0891,0.0206,0.0032,0.3846,0.0769,0.5385,0.6359,0.4929,0.1267,-0.2304,0.11126429,-0.018704516,0.002750153,0.092154415,-0.056317791,0.005783479,-0.038478871,-0.032746272,-0.019217781,-0.046487106,-0.003845924,0.07543,0.130728023,0.145157628,0.078171538,0.228693365,0.075651776,0.132849365,0.063412281,0.145336025,0.132401861,0.130063745,0.074334624,0.209144589,0.076662038,0.145764061,0.073550442,0.15807864
pg92-4,0.0133,0.5364,0.1746,0.0539,0.0326,0.0224,0.0386,0.0459,0.0388,0.0003,0.0049,0.0037,0.0024,0.0934,0.0472,0.0041,0.32,0.28,0.4,0.6182,0.077,0.1267,-0.2304,0.11126429,-0.018704516,0.002750153,0.092154415,-0.056317791,0.005783479,-0.038478871,-0.032746272,-0.019217781,-0.046487106,-0.003845924,0.07543,0.130728023,0.145157628,0.078171538,0.228693365,0.075651776,0.132849365,0.063412281,0.145336025,0.132401861,0.130063745,0.074334624,0.209144589,0.076662038,0.145764061,0.073550442,0.15807864
pg92-5,0.0167,0.5266,0.0826,0.055,0.0297,0.0208,0.0377,0.0541,0.0346,0.0001,0.0031,0.0023,0.0009,0.0973,0.1117,0.0037,0.1667,0.25,0.5833,0.5694,0.7019,0.1267,-0.2304,0.11126429,-0.018704516,0.002750153,0.092154415,-0.056317791,0.005783479,-0.038478871,-0.032746272,-0.019217781,-0.046487106,-0.003845924,0.07543,0.130728023,0.145157628,0.078171538,0.228693365,0.075651776,0.132849365,0.063412281,0.145336025,0.132401861,0.130063745,0.074334624,0.209144589,0.076662038,0.145764061,0.073550442,0.15807864
pg92-6,0.0158,0.4675,0.23,0.059,0.0349,0.0209,0.0401,0.0531,0.0315,0,0.0034,0.0021,0.0013,0.0987,0.1694,0.0045,0.2609,0.087,0.6522,0.5572,0.7088,0.1267,-0.2304,0.11126429,-0.018704516,0.002750153,0.092154415,-0.056317791,0.005783479,-0.038478871,-0.032746272,-0.019217781,-0.046487106,-0.003845924,0.07543,0.130728023,0.145157628,0.078171538,0.228693365,0.075651776,0.132849365,0.063412281,0.145336025,0.132401861,0.130063745,0.074334624,0.209144589,0.076662038,0.145764061,0.073550442,0.15807864
pg92-7,0.0183,0.4887,0.1002,0.0593,0.0316,0.0225,0.0402,0.0481,0.0393,0.0001,0.0034,0.004,0.0023,0.096,0.0199,0.01,0.1923,0.1923,0.6154,0.6304,0.1748,0.1267,-0.2304,0.11126429,-0.018704516,0.002750153,0.092154415,-0.056317791,0.005783479,-0.038478871,-0.032746272,-0.019217781,-0.046487106,-0.003845924,0.07543,0.130728023,0.145157628,0.078171538,0.228693365,0.075651776,0.132849365,0.063412281,0.145336025,0.132401861,0.130063745,0.074334624,0.209144589,0.076662038,0.145764061,0.073550442,0.15807864
pg14605-10,0.0196,0.362,0.1375,0.0773,0.0238,0.0235,0.0385,0.0561,0.0435,0.0002,0.0078,0.0062,0.0032,0.1088,-0.0074,0.015,0.3846,0.1154,0.5,0.7233,0.7114,0.2386,-0.1009,0.169343771,-0.020761595,0.027516492,0.051941513,-0.071289086,-0.015433175,-0.071131996,-0.007736372,-0.054439181,-0.008010371,0.007942529,0.05106,0.079790542,0.181192434,0.054319566,0.086971899,0.138212865,0.095288276,0.082948228,0.28127619,0.093868996,0.185122278,0.061106979,0.132918852,0.103362936,0.126973263,0.083165483,0.213481213
pg14605-13,0.0124,0.5014,0.0708,0.0837,0.025,0.0245,0.0361,0.0511,0.0447,0.0028,0.0076,0.008,0.0017,0.1056,-0.0044,0.0069,0.12,0.08,0.8,0.7136,0.4924,0.2386,-0.1009,0.169343771,-0.020761595,0.027516492,0.051941513,-0.071289086,-0.015433175,-0.071131996,-0.007736372,-0.054439181,-0.008010371,0.007942529,0.05106,0.079790542,0.181192434,0.054319566,0.086971899,0.138212865,0.095288276,0.082948228,0.28127619,0.093868996,0.185122278,0.061106979,0.132918852,0.103362936,0.126973263,0.083165483,0.213481213
pg14605-14,0.012,0.4702,0.0544,0.0795,0.0215,0.0245,0.0394,0.0552,0.0426,0.0023,0.0089,0.0078,0.0031,0.1136,0.0224,0.0087,0.2,0.12,0.68,0.714,0.5364,0.2386,-0.1009,0.169343771,-0.020761595,0.027516492,0.051941513,-0.071289086,-0.015433175,-0.071131996,-0.007736372,-0.054439181,-0.008010371,0.007942529,0.05106,0.079790542,0.181192434,0.054319566,0.086971899,0.138212865,0.095288276,0.082948228,0.28127619,0.093868996,0.185122278,0.061106979,0.132918852,0.103362936,0.126973263,0.083165483,0.213481213
pg14605-11,0.0225,0.2943,0.2578,0.0901,0.0251,0.0228,0.0425,0.0562,0.0446,0.0004,0.0081,0.0071,0.0053,0.1143,-0.0349,0.0188,0.1481,0.2963,0.5556,0.757,0.5738,0.2386,-0.1009,0.169343771,-0.020761595,0.027516492,0.051941513,-0.071289086,-0.015433175,-0.071131996,-0.007736372,-0.054439181,-0.008010371,0.007942529,0.05106,0.079790542,0.181192434,0.054319566,0.086971899,0.138212865,0.095288276,0.082948228,0.28127619,0.093868996,0.185122278,0.061106979,0.132918852,0.103362936,0.126973263,0.083165483,0.213481213
pg14605-12,0.0118,0.5114,0.1303,0.076,0.0253,0.0277,0.0435,0.0581,0.0418,0.0007,0.0082,0.0075,0.0018,0.118,0.0228,0.0064,0.3333,0.2593,0.4074,0.7102,0.6323,0.2386,-0.1009,0.169343771,-0.020761595,0.027516492,0.051941513,-0.071289086,-0.015433175,-0.071131996,-0.007736372,-0.054439181,-0.008010371,0.007942529,0.05106,0.079790542,0.181192434,0.054319566,0.086971899,0.138212865,0.095288276,0.082948228,0.28127619,0.093868996,0.185122278,0.061106979,0.132918852,0.103362936,0.126973263,0.083165483,0.213481213
pg14605-2,0.0174,0.459,0.0248,0.0684,0.0242,0.024,0.0378,0.0555,0.0443,0.0006,0.0085,0.0113,0.0038,0.1137,-0.0252,0.0144,0.3077,0.1538,0.5385,0.6772,0.6564,0.2386,-0.1009,0.169343771,-0.020761595,0.027516492,0.051941513,-0.071289086,-0.015433175,-0.071131996,-0.007736372,-0.054439181,-0.008010371,0.007942529,0.05106,0.079790542,0.181192434,0.054319566,0.086971899,0.138212865,0.095288276,0.082948228,0.28127619,0.093868996,0.185122278,0.061106979,0.132918852,0.103362936,0.126973263,0.083165483,0.213481213
pg14605-3,0.0217,0.2989,0.1616,0.0838,0.0276,0.0244,0.037,0.0574,0.0496,0.0005,0.0071,0.0112,0.0086,0.1132,-0.0996,0.0202,0.1538,0.1923,0.6538,0.7611,0.5497,0.2386,-0.1009,0.169343771,-0.020761595,0.027516492,0.051941513,-0.071289086,-0.015433175,-0.071131996,-0.007736372,-0.054439181,-0.008010371,0.007942529,0.05106,0.079790542,0.181192434,0.054319566,0.086971899,0.138212865,0.095288276,0.082948228,0.28127619,0.093868996,0.185122278,0.061106979,0.132918852,0.103362936,0.126973263,0.083165483,0.213481213
pg14605-1,0.0192,0.3517,0.1328,0.0717,0.0247,0.0247,0.0362,0.0547,0.0443,0.0003,0.0088,0.0084,0.0061,0.1084,-0.0409,0.0185,0.3077,0.1923,0.5,0.6905,0.387,0.2386,-0.1009,0.169343771,-0.020761595,0.027516492,0.051941513,-0.071289086,-0.015433175,-0.071131996,-0.007736372,-0.054439181,-0.008010371,0.007942529,0.05106,0.079790542,0.181192434,0.054319566,0.086971899,0.138212865,0.095288276,0.082948228,0.28127619,0.093868996,0.185122278,0.061106979,0.132918852,0.103362936,0.126973263,0.083165483,0.213481213
pg14605-8,0.0184,0.3281,0.1041,0.0689,0.0195,0.0253,0.0375,0.0594,0.0422,0.0007,0.008,0.0046,0.0031,0.1102,0.0162,0.0135,0.1538,0.2692,0.5769,0.6834,0.5903,0.2386,-0.1009,0.169343771,-0.020761595,0.027516492,0.051941513,-0.071289086,-0.015433175,-0.071131996,-0.007736372,-0.054439181,-0.008010371,0.007942529,0.05106,0.079790542,0.181192434,0.054319566,0.086971899,0.138212865,0.095288276,0.082948228,0.28127619,0.093868996,0.185122278,0.061106979,0.132918852,0.103362936,0.126973263,0.083165483,0.213481213
pg14605-9,0.0165,0.262,0.2503,0.0721,0.0214,0.024,0.0406,0.0603,0.043,0.0007,0.0107,0.0045,0.0031,0.1168,0.0046,0.0121,0.3077,0.1923,0.5,0.6977,0.594,0.2386,-0.1009,0.169343771,-0.020761595,0.027516492,0.051941513,-0.071289086,-0.015433175,-0.071131996,-0.007736372,-0.054439181,-0.008010371,0.007942529,0.05106,0.079790542,0.181192434,0.054319566,0.086971899,0.138212865,0.095288276,0.082948228,0.28127619,0.093868996,0.185122278,0.061106979,0.132918852,0.103362936,0.126973263,0.083165483,0.213481213
pg14605-6,0.0166,0.2324,0.2145,0.0753,0.0254,0.024,0.0378,0.056,0.0412,0.0002,0.008,0.005,0.0032,0.107,0.0228,0.0142,0.2308,0.2308,0.5385,0.7155,0.5,0.2386,-0.1009,0.169343771,-0.020761595,0.027516492,0.051941513,-0.071289086,-0.015433175,-0.071131996,-0.007736372,-0.054439181,-0.008010371,0.007942529,0.05106,0.079790542,0.181192434,0.054319566,0.086971899,0.138212865,0.095288276,0.082948228,0.28127619,0.093868996,0.185122278,0.061106979,0.132918852,0.103362936,0.126973263,0.083165483,0.213481213
pg14605-7,0.0187,0.2524,0.2513,0.0695,0.0232,0.0224,0.0385,0.0665,0.0417,0.0004,0.0076,0.0043,0.0044,0.1173,-0.0064,0.0166,0.1154,0.0385,0.8462,0.6917,0.4612,0.2386,-0.1009,0.169343771,-0.020761595,0.027516492,0.051941513,-0.071289086,-0.015433175,-0.071131996,-0.007736372,-0.054439181,-0.008010371,0.007942529,0.05106,0.079790542,0.181192434,0.054319566,0.086971899,0.138212865,0.095288276,0.082948228,0.28127619,0.093868996,0.185122278,0.061106979,0.132918852,0.103362936,0.126973263,0.083165483,0.213481213
pg14605-4,0.0172,0.3164,0.336,0.0832,0.029,0.0241,0.0432,0.0566,0.0424,0.0008,0.0066,0.0087,0.0047,0.1159,-0.0169,0.0106,0.3333,0.2222,0.4444,0.7059,0.5403,0.2386,-0.1009,0.169343771,-0.020761595,0.027516492,0.051941513,-0.071289086,-0.015433175,-0.071131996,-0.007736372,-0.054439181,-0.008010371,0.007942529,0.05106,0.079790542,0.181192434,0.054319566,0.086971899,0.138212865,0.095288276,0.082948228,0.28127619,0.093868996,0.185122278,0.061106979,0.132918852,0.103362936,0.126973263,0.083165483,0.213481213
pg14605-5,0.0207,0.2336,0.2031,0.0672,0.018,0.0229,0.0329,0.0575,0.0461,0.0006,0.0056,0.0074,0.0073,0.104,-0.0515,0.0185,0.44,0.08,0.48,0.699,0.4552,0.2386,-0.1009,0.169343771,-0.020761595,0.027516492,0.051941513,-0.071289086,-0.015433175,-0.071131996,-0.007736372,-0.054439181,-0.008010371,0.007942529,0.05106,0.079790542,0.181192434,0.054319566,0.086971899,0.138212865,0.095288276,0.082948228,0.28127619,0.093868996,0.185122278,0.061106979,0.132918852,0.103362936,0.126973263,0.083165483,0.213481213
pg11970-11,0.0244,0.2457,0.2438,0.101,0.0363,0.0208,0.0272,0.068,0.0407,0.0007,0.006,0.0001,0.0051,0.1019,-0.0509,0.0239,0.1724,0.2414,0.5862,0.7741,0.5692,0.1498,-0.1243,-0.135030887,0.084159017,0.167711301,0.057507664,0.03275841,-0.038169619,-0.016061296,-0.064253108,-0.049377528,-0.039243954,-0.055458109,0.06855,0.054633747,0.178046007,0.027930034,0.09289444,0.216088671,0.118256762,0.080075861,0.232074478,0.0700489,0.179110326,0.043798626,0.097137842,0.202884412,0.129633505,0.081241679,0.196144709
pg11970-10,0.0197,0.1861,0.2374,0.0999,0.0328,0.0178,0.0248,0.0577,0.0434,0.0007,0.008,0.0002,0.0054,0.0914,-0.0563,0.0204,0.2759,0.2759,0.4483,0.7558,0.4791,0.1498,-0.1243,-0.135030887,0.084159017,0.167711301,0.057507664,0.03275841,-0.038169619,-0.016061296,-0.064253108,-0.049377528,-0.039243954,-0.055458109,0.06855,0.054633747,0.178046007,0.027930034,0.09289444,0.216088671,0.118256762,0.080075861,0.232074478,0.0700489,0.179110326,0.043798626,0.097137842,0.202884412,0.129633505,0.081241679,0.196144709
pg11970-1,0.018,0.3047,0.1729,0.0836,0.028,0.0245,0.0304,0.056,0.0442,0.0008,0.0107,0.0003,0.0021,0.0982,-0.0288,0.0152,0.2333,0.1667,0.6,0.7588,0.4864,0.1498,-0.1243,-0.135030887,0.084159017,0.167711301,0.057507664,0.03275841,-0.038169619,-0.016061296,-0.064253108,-0.049377528,-0.039243954,-0.055458109,0.06855,0.054633747,0.178046007,0.027930034,0.09289444,0.216088671,0.118256762,0.080075861,0.232074478,0.0700489,0.179110326,0.043798626,0.097137842,0.202884412,0.129633505,0.081241679,0.196144709
pg11970-7,0.023,0.1312,0.1921,0.0969,0.0296,0.0198,0.0228,0.0625,0.0466,0.0011,0.0086,0.0001,0.0042,0.0951,-0.0639,0.0234,0.2414,0.2759,0.4828,0.749,0.5105,0.1498,-0.1243,-0.135030887,0.084159017,0.167711301,0.057507664,0.03275841,-0.038169619,-0.016061296,-0.064253108,-0.049377528,-0.039243954,-0.055458109,0.06855,0.054633747,0.178046007,0.027930034,0.09289444,0.216088671,0.118256762,0.080075861,0.232074478,0.0700489,0.179110326,0.043798626,0.097137842,0.202884412,0.129633505,0.081241679,0.196144709
pg11970-6,0.0254,0.1827,0.224,0.1215,0.0307,0.0174,0.0241,0.0662,0.0455,0.0009,0.0091,0,0.0046,0.1003,-0.072,0.0255,0.2,0.4,0.4,0.7935,0.4129,0.1498,-0.1243,-0.135030887,0.084159017,0.167711301,0.057507664,0.03275841,-0.038169619,-0.016061296,-0.064253108,-0.049377528,-0.039243954,-0.055458109,0.06855,0.054633747,0.178046007,0.027930034,0.09289444,0.216088671,0.118256762,0.080075861,0.232074478,0.0700489,0.179110326,0.043798626,0.097137842,0.202884412,0.129633505,0.081241679,0.196144709
pg11970-9,0.0208,0.2819,0.2248,0.0999,0.0349,0.0195,0.0258,0.0597,0.0467,0.0008,0.0086,0,0.0038,0.0949,-0.0639,0.0183,0.2143,0.1429,0.6429,0.7652,0.4732,0.1498,-0.1243,-0.135030887,0.084159017,0.167711301,0.057507664,0.03275841,-0.038169619,-0.016061296,-0.064253108,-0.049377528,-0.039243954,-0.055458109,0.06855,0.054633747,0.178046007,0.027930034,0.09289444,0.216088671,0.118256762,0.080075861,0.232074478,0.0700489,0.179110326,0.043798626,0.097137842,0.202884412,0.129633505,0.081241679,0.196144709
pg11970-8,0.0177,0.1619,0.197,0.118,0.0414,0.0218,0.0219,0.0629,0.0463,0.0002,0.007,0,0.0071,0.092,-0.0784,0.019,0.2963,0.2222,0.4815,0.8143,0.5499,0.1498,-0.1243,-0.135030887,0.084159017,0.167711301,0.057507664,0.03275841,-0.038169619,-0.016061296,-0.064253108,-0.049377528,-0.039243954,-0.055458109,0.06855,0.054633747,0.178046007,0.027930034,0.09289444,0.216088671,0.118256762,0.080075861,0.232074478,0.0700489,0.179110326,0.043798626,0.097137842,0.202884412,0.129633505,0.081241679,0.196144709
pg11970-3,0.0229,0.2983,0.2766,0.1109,0.0272,0.0217,0.0245,0.0629,0.043,0.0009,0.0105,0,0.0027,0.0988,-0.0442,0.0221,0.4138,0.3103,0.2759,0.7464,0.3955,0.1498,-0.1243,-0.135030887,0.084159017,0.167711301,0.057507664,0.03275841,-0.038169619,-0.016061296,-0.064253108,-0.049377528,-0.039243954,-0.055458109,0.06855,0.054633747,0.178046007,0.027930034,0.09289444,0.216088671,0.118256762,0.080075861,0.232074478,0.0700489,0.179110326,0.043798626,0.097137842,0.202884412,0.129633505,0.081241679,0.196144709
pg11970-2,0.0165,0.3228,0.2425,0.0892,0.0316,0.0226,0.03,0.0562,0.0435,0.0002,0.011,0.0002,0.0032,0.0976,-0.0323,0.0127,0.1724,0.2759,0.5517,0.747,0.3657,0.1498,-0.1243,-0.135030887,0.084159017,0.167711301,0.057507664,0.03275841,-0.038169619,-0.016061296,-0.064253108,-0.049377528,-0.039243954,-0.055458109,0.06855,0.054633747,0.178046007,0.027930034,0.09289444,0.216088671,0.118256762,0.080075861,0.232074478,0.0700489,0.179110326,0.043798626,0.097137842,0.202884412,0.129633505,0.081241679,0.196144709
pg11970-5,0.0259,0.2264,0.2586,0.1123,0.0277,0.0195,0.0231,0.0629,0.0458,0.0007,0.0108,0,0.0052,0.0975,-0.0846,0.0263,0.2333,0.3333,0.4333,0.7624,0.4506,0.1498,-0.1243,-0.135030887,0.084159017,0.167711301,0.057507664,0.03275841,-0.038169619,-0.016061296,-0.064253108,-0.049377528,-0.039243954,-0.055458109,0.06855,0.054633747,0.178046007,0.027930034,0.09289444,0.216088671,0.118256762,0.080075861,0.232074478,0.0700489,0.179110326,0.043798626,0.097137842,0.202884412,0.129633505,0.081241679,0.196144709
pg11970-4,0.022,0.2701,0.2744,0.1116,0.0265,0.0204,0.0259,0.0573,0.0421,0.0009,0.0101,0,0.0022,0.0942,-0.04,0.0197,0.1852,0.2963,0.5185,0.7519,0.7252,0.1498,-0.1243,-0.135030887,0.084159017,0.167711301,0.057507664,0.03275841,-0.038169619,-0.016061296,-0.064253108,-0.049377528,-0.039243954,-0.055458109,0.06855,0.054633747,0.178046007,0.027930034,0.09289444,0.216088671,0.118256762,0.080075861,0.232074478,0.0700489,0.179110326,0.043798626,0.097137842,0.202884412,0.129633505,0.081241679,0.196144709
pg33918-1,0.0362,0.0963,0.0424,0.0733,0.0129,0.0174,0.02,0.0581,0.0643,0,0.003,0.018,0.0364,0.0991,-0.2676,0.0314,0.4722,0.1528,0.375,0.8534,0.5149,0.1575,-0.0266,-0.101652901,-0.009199317,-0.087224455,-0.093792049,-0.014867849,0.015927878,0.00412413,0.134319192,0.199621074,-0.047255703,-0.016774361,0.06045,0.057801722,0.192375482,0.091946149,0.059070691,0.166381238,0.102560535,0.043669426,0.286194758,0.068428705,0.18982593,0.068080121,0.078761282,0.169893958,0.105136944,0.078270864,0.241602196
pg33326-1,0.0079,0.3873,0.2235,0.0739,0.025,0.0309,0.0268,0.0655,0.0544,0.0021,0.0002,0.0002,0.0001,0.0948,-0.0735,0.0063,0.0278,0,0.9722,0.5922,0.6918,0.4286,-0.2708,0.19498988,-0.067086732,-0.103940542,-0.074902768,-0.092468946,-0.041042671,-0.018538677,0.055910422,0.019958286,0.127121749,-0.122307866,0.04843,0.130005472,0.105792165,0.102347775,0.129606443,0.180184807,0.090423302,0.065704047,0.195935988,0.105731123,0.181595385,0.049914181,0.14073895,0.170218725,0.117409818,0.073680088,0.160711731
pg33326-2,0.0043,0.2085,0.4138,0.087,0.028,0.0294,0.0261,0.0687,0.053,0.0023,0,0.0001,0,0.0972,-0.061,0.0051,0.119,0.0238,0.8571,0.601,0.5388,0.4286,-0.2708,0.19498988,-0.067086732,-0.103940542,-0.074902768,-0.092468946,-0.041042671,-0.018538677,0.055910422,0.019958286,0.127121749,-0.122307866,0.04843,0.130005472,0.105792165,0.102347775,0.129606443,0.180184807,0.090423302,0.065704047,0.195935988,0.105731123,0.181595385,0.049914181,0.14073895,0.170218725,0.117409818,0.073680088,0.160711731
pg15143-6,0.0192,0.4048,0.0069,0.0604,0.0268,0.0295,0.045,0.0665,0.042,0.0035,0.0047,0.0036,0.0032,0.1233,-0.0083,0.0144,0.1379,0.0345,0.8276,0.6684,0.4668,0.084,0.0562,0.267304668,-0.042603084,-0.01009347,0.232782459,-0.121095298,-0.014724644,-0.065090078,-0.085467914,-0.071025823,-0.089986817,-0.043833722,0.05438,0.090593136,0.172582615,0.051798725,0.193834317,0.08670203,0.11499459,0.103240834,0.186253754,0.086369262,0.165738188,0.061887357,0.128623106,0.112924668,0.158867812,0.101054648,0.184534958
pg15143-7,0.0199,0.201,0.0626,0.0852,0.0138,0.0288,0.0269,0.0541,0.0548,0.0002,0.0046,0.0014,0.0085,0.0872,-0.1398,0.0252,0.3,0.1667,0.5333,0.8207,0.6038,0.084,0.0562,0.267304668,-0.042603084,-0.01009347,0.232782459,-0.121095298,-0.014724644,-0.065090078,-0.085467914,-0.071025823,-0.089986817,-0.043833722,0.05438,0.090593136,0.172582615,0.051798725,0.193834317,0.08670203,0.11499459,0.103240834,0.186253754,0.086369262,0.165738188,0.061887357,0.128623106,0.112924668,0.158867812,0.101054648,0.184534958
pg15143-4,0.0335,0.179,0.0988,0.0757,0.0215,0.0273,0.0304,0.0619,0.0501,0.001,0.0065,0.0064,0.007,0.1062,-0.1301,0.0306,0.2333,0.2,0.5667,0.7617,0.4729,0.084,0.0562,0.267304668,-0.042603084,-0.01009347,0.232782459,-0.121095298,-0.014724644,-0.065090078,-0.085467914,-0.071025823,-0.089986817,-0.043833722,0.05438,0.090593136,0.172582615,0.051798725,0.193834317,0.08670203,0.11499459,0.103240834,0.186253754,0.086369262,0.165738188,0.061887357,0.128623106,0.112924668,0.158867812,0.101054648,0.184534958
pg15143-5,0.0272,0.199,0.0571,0.0723,0.0257,0.0276,0.0427,0.0665,0.0449,0.001,0.0077,0.0063,0.0064,0.1242,-0.0749,0.0234,0.3667,0.1333,0.5,0.7423,0.4973,0.084,0.0562,0.267304668,-0.042603084,-0.01009347,0.232782459,-0.121095298,-0.014724644,-0.065090078,-0.085467914,-0.071025823,-0.089986817,-0.043833722,0.05438,0.090593136,0.172582615,0.051798725,0.193834317,0.08670203,0.11499459,0.103240834,0.186253754,0.086369262,0.165738188,0.061887357,0.128623106,0.112924668,0.158867812,0.101054648,0.184534958
pg15143-2,0.0143,0.1611,0.0071,0.0777,0.021,0.0285,0.0384,0.0638,0.038,0.001,0.0033,0.0057,0.0022,0.1122,0.0534,0.0102,0.1724,0.1379,0.6897,0.6355,0.1413,0.084,0.0562,0.267304668,-0.042603084,-0.01009347,0.232782459,-0.121095298,-0.014724644,-0.065090078,-0.085467914,-0.071025823,-0.089986817,-0.043833722,0.05438,0.090593136,0.172582615,0.051798725,0.193834317,0.08670203,0.11499459,0.103240834,0.186253754,0.086369262,0.165738188,0.061887357,0.128623106,0.112924668,0.158867812,0.101054648,0.184534958
pg15143-3,0.0263,0.2391,0.116,0.0853,0.0268,0.031,0.0326,0.0551,0.0485,0.0005,0.0027,0.0068,0.006,0.0977,-0.0939,0.022,0.1724,0.2414,0.5862,0.7151,0.3832,0.084,0.0562,0.267304668,-0.042603084,-0.01009347,0.232782459,-0.121095298,-0.014724644,-0.065090078,-0.085467914,-0.071025823,-0.089986817,-0.043833722,0.05438,0.090593136,0.172582615,0.051798725,0.193834317,0.08670203,0.11499459,0.103240834,0.186253754,0.086369262,0.165738188,0.061887357,0.128623106,0.112924668,0.158867812,0.101054648,0.184534958
pg15143-1,0.0092,0.1812,0.0057,0.0527,0.0174,0.0313,0.0408,0.067,0.0313,0.0007,0.004,0.004,0.0028,0.1165,0.1548,0.0037,0,0.4815,0.5185,0.5686,0.1975,0.084,0.0562,0.267304668,-0.042603084,-0.01009347,0.232782459,-0.121095298,-0.014724644,-0.065090078,-0.085467914,-0.071025823,-0.089986817,-0.043833722,0.05438,0.090593136,0.172582615,0.051798725,0.193834317,0.08670203,0.11499459,0.103240834,0.186253754,0.086369262,0.165738188,0.061887357,0.128623106,0.112924668,0.158867812,0.101054648,0.184534958
pg15143-8,0.0115,0.1324,0.0373,0.0606,0.0225,0.0269,0.0294,0.0649,0.0419,0.0007,0.004,0.0058,0.0026,0.1048,0.0057,0.0088,0.1429,0.1071,0.75,0.6255,0.7996,0.084,0.0562,0.267304668,-0.042603084,-0.01009347,0.232782459,-0.121095298,-0.014724644,-0.065090078,-0.085467914,-0.071025823,-0.089986817,-0.043833722,0.05438,0.090593136,0.172582615,0.051798725,0.193834317,0.08670203,0.11499459,0.103240834,0.186253754,0.086369262,0.165738188,0.061887357,0.128623106,0.112924668,0.158867812,0.101054648,0.184534958
pg15143-9,0.0136,0.1643,0.148,0.1029,0.0255,0.0302,0.0329,0.0723,0.0446,0.0011,0.0042,0.0108,0.0053,0.1213,-0.0523,0.0107,0.2857,0.1071,0.6071,0.7614,0.4654,0.084,0.0562,0.267304668,-0.042603084,-0.01009347,0.232782459,-0.121095298,-0.014724644,-0.065090078,-0.085467914,-0.071025823,-0.089986817,-0.043833722,0.05438,0.090593136,0.172582615,0.051798725,0.193834317,0.08670203,0.11499459,0.103240834,0.186253754,0.086369262,0.165738188,0.061887357,0.128623106,0.112924668,0.158867812,0.101054648,0.184534958
pg15143-10,0.0197,0.1189,0.1676,0.1019,0.0234,0.0269,0.0353,0.0662,0.0526,0.001,0.0033,0.0108,0.0083,0.1166,-0.1306,0.0184,0.3793,0.1724,0.4483,0.843,0.583,0.084,0.0562,0.267304668,-0.042603084,-0.01009347,0.232782459,-0.121095298,-0.014724644,-0.065090078,-0.085467914,-0.071025823,-0.089986817,-0.043833722,0.05438,0.090593136,0.172582615,0.051798725,0.193834317,0.08670203,0.11499459,0.103240834,0.186253754,0.086369262,0.165738188,0.061887357,0.128623106,0.112924668,0.158867812,0.101054648,0.184534958
pg15143-11,0.016,0.0906,0.1303,0.064,0.0218,0.0298,0.0392,0.0663,0.0348,0.0018,0.0048,0.0107,0.006,0.1227,0.0479,0.0078,0.2414,0.2414,0.5172,0.6476,0.3334,0.084,0.0562,0.267304668,-0.042603084,-0.01009347,0.232782459,-0.121095298,-0.014724644,-0.065090078,-0.085467914,-0.071025823,-0.089986817,-0.043833722,0.05438,0.090593136,0.172582615,0.051798725,0.193834317,0.08670203,0.11499459,0.103240834,0.186253754,0.086369262,0.165738188,0.061887357,0.128623106,0.112924668,0.158867812,0.101054648,0.184534958
pg1155-10,0.0289,0.1803,0.0848,0.0928,0.0172,0.0221,0.025,0.0457,0.0585,0.0004,0.0001,0.0104,0.0123,0.0817,-0.1773,0.0246,0.4667,0.2222,0.3111,0.7568,0.4755,0.2685,-0.1094,0.13648629,-0.017496916,-0.00909533,0.107851014,-0.090471076,-0.017412898,-0.002334519,-0.022605051,-0.034585367,-0.050336149,-0.017912618,0.05613,0.084130873,0.228342506,0.043144201,0.088163432,0.125331381,0.087637461,0.102366268,0.240883879,0.093499779,0.189242413,0.05245293,0.13688711,0.087893431,0.100969014,0.115138628,0.223916695
pg1155-4,0.0277,0.1661,0.1687,0.0988,0.0162,0.0231,0.0262,0.056,0.0652,0.0006,0.0001,0.0046,0.0081,0.0875,-0.1904,0.0273,0.4,0.1778,0.4222,0.8146,0.543,0.2685,-0.1094,0.13648629,-0.017496916,-0.00909533,0.107851014,-0.090471076,-0.017412898,-0.002334519,-0.022605051,-0.034585367,-0.050336149,-0.017912618,0.05613,0.084130873,0.228342506,0.043144201,0.088163432,0.125331381,0.087637461,0.102366268,0.240883879,0.093499779,0.189242413,0.05245293,0.13688711,0.087893431,0.100969014,0.115138628,0.223916695
pg1155-5,0.0429,0.1604,0.2351,0.0803,0.0188,0.0205,0.0209,0.0455,0.069,0.0009,0.0003,0.01,0.0096,0.0776,-0.2194,0.0397,0.5333,0.1778,0.2889,0.7797,0.6625,0.2685,-0.1094,0.13648629,-0.017496916,-0.00909533,0.107851014,-0.090471076,-0.017412898,-0.002334519,-0.022605051,-0.034585367,-0.050336149,-0.017912618,0.05613,0.084130873,0.228342506,0.043144201,0.088163432,0.125331381,0.087637461,0.102366268,0.240883879,0.093499779,0.189242413,0.05245293,0.13688711,0.087893431,0.100969014,0.115138628,0.223916695
pg1155-2,0.0323,0.2224,0.094,0.0816,0.0173,0.0226,0.0264,0.0511,0.0626,0.0017,0.0005,0.0077,0.0116,0.0874,-0.1925,0.0283,0.4091,0.25,0.3409,0.7379,0.5518,0.2685,-0.1094,0.13648629,-0.017496916,-0.00909533,0.107851014,-0.090471076,-0.017412898,-0.002334519,-0.022605051,-0.034585367,-0.050336149,-0.017912618,0.05613,0.084130873,0.228342506,0.043144201,0.088163432,0.125331381,0.087637461,0.102366268,0.240883879,0.093499779,0.189242413,0.05245293,0.13688711,0.087893431,0.100969014,0.115138628,0.223916695
pg1155-3,0.0301,0.27,0.2305,0.0717,0.0194,0.0244,0.0255,0.0507,0.0601,0.0031,0.0005,0.0065,0.0066,0.0863,-0.1688,0.0228,0.3488,0.0698,0.5814,0.7027,0.5665,0.2685,-0.1094,0.13648629,-0.017496916,-0.00909533,0.107851014,-0.090471076,-0.017412898,-0.002334519,-0.022605051,-0.034585367,-0.050336149,-0.017912618,0.05613,0.084130873,0.228342506,0.043144201,0.088163432,0.125331381,0.087637461,0.102366268,0.240883879,0.093499779,0.189242413,0.05245293,0.13688711,0.087893431,0.100969014,0.115138628,0.223916695
pg1155-1,0.0378,0.1323,0.1444,0.082,0.017,0.0211,0.0242,0.0451,0.064,0.0028,0.0002,0.0076,0.0167,0.0799,-0.2234,0.036,0.4,0.1778,0.4222,0.7613,0.5714,0.2685,-0.1094,0.13648629,-0.017496916,-0.00909533,0.107851014,-0.090471076,-0.017412898,-0.002334519,-0.022605051,-0.034585367,-0.050336149,-0.017912618,0.05613,0.084130873,0.228342506,0.043144201,0.088163432,0.125331381,0.087637461,0.102366268,0.240883879,0.093499779,0.189242413,0.05245293,0.13688711,0.087893431,0.100969014,0.115138628,0.223916695
pg1155-8,0.0347,0.2799,0.0521,0.0884,0.0152,0.0251,0.019,0.0432,0.066,0.0022,0.0001,0.0103,0.014,0.0748,-0.2118,0.0303,0.3333,0.2222,0.4444,0.7543,0.404,0.2685,-0.1094,0.13648629,-0.017496916,-0.00909533,0.107851014,-0.090471076,-0.017412898,-0.002334519,-0.022605051,-0.034585367,-0.050336149,-0.017912618,0.05613,0.084130873,0.228342506,0.043144201,0.088163432,0.125331381,0.087637461,0.102366268,0.240883879,0.093499779,0.189242413,0.05245293,0.13688711,0.087893431,0.100969014,0.115138628,0.223916695
pg1155-9,0.0265,0.1412,0.1161,0.0998,0.0199,0.0264,0.0273,0.04,0.0678,0.0013,0.0003,0.0103,0.0099,0.0792,-0.2007,0.0235,0.5333,0.2222,0.2444,0.8039,0.5632,0.2685,-0.1094,0.13648629,-0.017496916,-0.00909533,0.107851014,-0.090471076,-0.017412898,-0.002334519,-0.022605051,-0.034585367,-0.050336149,-0.017912618,0.05613,0.084130873,0.228342506,0.043144201,0.088163432,0.125331381,0.087637461,0.102366268,0.240883879,0.093499779,0.189242413,0.05245293,0.13688711,0.087893431,0.100969014,0.115138628,0.223916695
pg1155-6,0.0334,0.3696,0.1106,0.0861,0.0224,0.0258,0.0241,0.0409,0.0711,0.0012,0.0005,0.0074,0.0072,0.0741,-0.2203,0.0273,0.3409,0.1591,0.5,0.7882,0.416,0.2685,-0.1094,0.13648629,-0.017496916,-0.00909533,0.107851014,-0.090471076,-0.017412898,-0.002334519,-0.022605051,-0.034585367,-0.050336149,-0.017912618,0.05613,0.084130873,0.228342506,0.043144201,0.088163432,0.125331381,0.087637461,0.102366268,0.240883879,0.093499779,0.189242413,0.05245293,0.13688711,0.087893431,0.100969014,0.115138628,0.223916695
pg1155-7,0.0346,0.1977,0.1362,0.0867,0.019,0.0248,0.0222,0.0399,0.0694,0.0012,0.0003,0.0061,0.0072,0.0697,-0.2139,0.03,0.3778,0.1778,0.4444,0.8037,0.6055,0.2685,-0.1094,0.13648629,-0.017496916,-0.00909533,0.107851014,-0.090471076,-0.017412898,-0.002334519,-0.022605051,-0.034585367,-0.050336149,-0.017912618,0.05613,0.084130873,0.228342506,0.043144201,0.088163432,0.125331381,0.087637461,0.102366268,0.240883879,0.093499779,0.189242413,0.05245293,0.13688711,0.087893431,0.100969014,0.115138628,0.223916695
pg10477-9,0.004,0.6262,0,0.0375,0.0251,0.0256,0.0537,0.0703,0.0355,0.0003,0.0093,0,0,0.1337,0.1404,0.0046,0.1579,0.3684,0.4737,0.425,0.8065,0.0451,0.5382,0.160257196,-0.11338531,0.116746088,0.121315892,-0.076830542,0.071412196,-0.076009485,-0.007417153,-0.124163257,-0.071925624,-0.049944637,0.0578,0.076684406,0.150123516,0.049299186,0.13730194,0.137771126,0.082877164,0.046886814,0.319055848,0.0804769,0.184870194,0.041561419,0.084125604,0.160273969,0.082419338,0.065956931,0.300315647
pg10477-7,0.0038,0.4154,0.0055,0.0372,0.0172,0.0269,0.0521,0.0761,0.0352,0.0006,0.0072,0,0.0002,0.136,0.1426,0.0018,0.0588,0.1176,0.8235,0.4527,0.1474,0.0451,0.5382,0.160257196,-0.11338531,0.116746088,0.121315892,-0.076830542,0.071412196,-0.076009485,-0.007417153,-0.124163257,-0.071925624,-0.049944637,0.0578,0.076684406,0.150123516,0.049299186,0.13730194,0.137771126,0.082877164,0.046886814,0.319055848,0.0804769,0.184870194,0.041561419,0.084125604,0.160273969,0.082419338,0.065956931,0.300315647
pg10477-8,0.0044,0.56,0.0055,0.0322,0.0228,0.0284,0.0474,0.0743,0.0339,0.0002,0.009,0,0.0001,0.1309,0.1712,0.0029,0.0556,0.3889,0.5556,0.4314,0.0495,0.0451,0.5382,0.160257196,-0.11338531,0.116746088,0.121315892,-0.076830542,0.071412196,-0.076009485,-0.007417153,-0.124163257,-0.071925624,-0.049944637,0.0578,0.076684406,0.150123516,0.049299186,0.13730194,0.137771126,0.082877164,0.046886814,0.319055848,0.0804769,0.184870194,0.041561419,0.084125604,0.160273969,0.082419338,0.065956931,0.300315647
pg10477-1,0.0081,0.2802,0.0097,0.0212,0.0202,0.0285,0.0485,0.076,0.0281,0.0009,0.0061,0,0.0001,0.1315,0.2915,0.0043,0,0.1579,0.8421,0.3748,0.0587,0.0451,0.5382,0.160257196,-0.11338531,0.116746088,0.121315892,-0.076830542,0.071412196,-0.076009485,-0.007417153,-0.124163257,-0.071925624,-0.049944637,0.0578,0.076684406,0.150123516,0.049299186,0.13730194,0.137771126,0.082877164,0.046886814,0.319055848,0.0804769,0.184870194,0.041561419,0.084125604,0.160273969,0.082419338,0.065956931,0.300315647
pg10477-2,0.0055,0.4179,0.0131,0.0307,0.015,0.0228,0.0474,0.0763,0.0313,0.0004,0.013,0,0.0004,0.1371,0.2111,0.0031,0,0.2222,0.7778,0.4345,0.1382,0.0451,0.5382,0.160257196,-0.11338531,0.116746088,0.121315892,-0.076830542,0.071412196,-0.076009485,-0.007417153,-0.124163257,-0.071925624,-0.049944637,0.0578,0.076684406,0.150123516,0.049299186,0.13730194,0.137771126,0.082877164,0.046886814,0.319055848,0.0804769,0.184870194,0.041561419,0.084125604,0.160273969,0.082419338,0.065956931,0.300315647
pg10477-5,0.005,0.5839,0.0032,0.0438,0.0182,0.0203,0.0439,0.0691,0.0371,0.0008,0.0079,0,0,0.1217,0.0996,0.0039,0.1053,0.3684,0.5263,0.4428,0.1434,0.0451,0.5382,0.160257196,-0.11338531,0.116746088,0.121315892,-0.076830542,0.071412196,-0.076009485,-0.007417153,-0.124163257,-0.071925624,-0.049944637,0.0578,0.076684406,0.150123516,0.049299186,0.13730194,0.137771126,0.082877164,0.046886814,0.319055848,0.0804769,0.184870194,0.041561419,0.084125604,0.160273969,0.082419338,0.065956931,0.300315647
pg10477-6,0.005,0.5778,0.013,0.0488,0.0206,0.0236,0.0569,0.0723,0.0353,0.0008,0.0106,0,0.0003,0.1406,0.1211,0.0033,0.1667,0.1667,0.6667,0.4736,0.9713,0.0451,0.5382,0.160257196,-0.11338531,0.116746088,0.121315892,-0.076830542,0.071412196,-0.076009485,-0.007417153,-0.124163257,-0.071925624,-0.049944637,0.0578,0.076684406,0.150123516,0.049299186,0.13730194,0.137771126,0.082877164,0.046886814,0.319055848,0.0804769,0.184870194,0.041561419,0.084125604,0.160273969,0.082419338,0.065956931,0.300315647
pg10477-3,0.0057,0.2402,0.0574,0.0251,0.0132,0.027,0.0569,0.0802,0.028,0.0002,0.0098,0.0001,0.0003,0.1472,0.2862,0.0016,0.0556,0.2222,0.7222,0.3945,0.0295,0.0451,0.5382,0.160257196,-0.11338531,0.116746088,0.121315892,-0.076830542,0.071412196,-0.076009485,-0.007417153,-0.124163257,-0.071925624,-0.049944637,0.0578,0.076684406,0.150123516,0.049299186,0.13730194,0.137771126,0.082877164,0.046886814,0.319055848,0.0804769,0.184870194,0.041561419,0.084125604,0.160273969,0.082419338,0.065956931,0.300315647
pg10477-4,0.0041,0.6334,0.003,0.0435,0.0236,0.025,0.0429,0.0606,0.037,0.0029,0.01,0,0.0004,0.1164,0.0981,0.0083,0.0556,0.2778,0.6667,0.5115,0.2884,0.0451,0.5382,0.160257196,-0.11338531,0.116746088,0.121315892,-0.076830542,0.071412196,-0.076009485,-0.007417153,-0.124163257,-0.071925624,-0.049944637,0.0578,0.076684406,0.150123516,0.049299186,0.13730194,0.137771126,0.082877164,0.046886814,0.319055848,0.0804769,0.184870194,0.041561419,0.084125604,0.160273969,0.082419338,0.065956931,0.300315647
pg33664-1,0.0164,0.3322,0.2,0.0651,0.0234,0.0261,0.0427,0.083,0.0426,0.0011,0.0049,0.0071,0.0055,0.1388,-0.0475,0.0132,0.3,0.2,0.5,0.7158,0.2937,0.0693,0.0371,0.240895965,-0.027380397,0.035314027,0.069574117,-0.083809835,0.005374015,-0.101013453,-0.025161304,-0.091386705,-0.022406432,-0.015923919,0.06601,0.056830408,0.18703724,0.044426161,0.09396944,0.182203805,0.128077678,0.097266833,0.210188435,0.078229851,0.159628914,0.054062314,0.106610792,0.150313013,0.140122531,0.095827098,0.215205487
pg33664-2,0.0211,0.2516,0.2063,0.0816,0.0265,0.023,0.0367,0.0725,0.0492,0.0006,0.0035,0.0077,0.0064,0.121,-0.1158,0.0182,0.25,0.1071,0.6429,0.77,0.6003,0.0693,0.0371,0.240895965,-0.027380397,0.035314027,0.069574117,-0.083809835,0.005374015,-0.101013453,-0.025161304,-0.091386705,-0.022406432,-0.015923919,0.06601,0.056830408,0.18703724,0.044426161,0.09396944,0.182203805,0.128077678,0.097266833,0.210188435,0.078229851,0.159628914,0.054062314,0.106610792,0.150313013,0.140122531,0.095827098,0.215205487
pg33664-3,0.0204,0.1765,0.3091,0.0869,0.0315,0.0264,0.0312,0.0725,0.0469,0.0003,0.0032,0.0141,0.0133,0.1213,-0.1247,0.0163,0.3226,0.4839,0.1935,0.7989,0.475,0.0693,0.0371,0.240895965,-0.027380397,0.035314027,0.069574117,-0.083809835,0.005374015,-0.101013453,-0.025161304,-0.091386705,-0.022406432,-0.015923919,0.06601,0.056830408,0.18703724,0.044426161,0.09396944,0.182203805,0.128077678,0.097266833,0.210188435,0.078229851,0.159628914,0.054062314,0.106610792,0.150313013,0.140122531,0.095827098,0.215205487
pg33664-4,0.0159,0.2453,0.1985,0.0794,0.0274,0.0242,0.0358,0.0795,0.0435,0.0002,0.0045,0.0132,0.0083,0.1332,-0.0812,0.0152,0.1563,0.25,0.5938,0.785,0.5098,0.0693,0.0371,0.240895965,-0.027380397,0.035314027,0.069574117,-0.083809835,0.005374015,-0.101013453,-0.025161304,-0.091386705,-0.022406432,-0.015923919,0.06601,0.056830408,0.18703724,0.044426161,0.09396944,0.182203805,0.128077678,0.097266833,0.210188435,0.078229851,0.159628914,0.054062314,0.106610792,0.150313013,0.140122531,0.095827098,0.215205487
pg33664-5,0.0165,0.2083,0.2974,0.0925,0.0299,0.0239,0.0341,0.0797,0.0449,0.0004,0.0043,0.014,0.0065,0.1325,-0.0777,0.0137,0.2903,0.3226,0.3871,0.8001,0.6498,0.0693,0.0371,0.240895965,-0.027380397,0.035314027,0.069574117,-0.083809835,0.005374015,-0.101013453,-0.025161304,-0.091386705,-0.022406432,-0.015923919,0.06601,0.056830408,0.18703724,0.044426161,0.09396944,0.182203805,0.128077678,0.097266833,0.210188435,0.078229851,0.159628914,0.054062314,0.106610792,0.150313013,0.140122531,0.095827098,0.215205487
pg33664-6,0.0175,0.2739,0.2822,0.0915,0.0297,0.0258,0.0364,0.0683,0.051,0,0.0072,0.0118,0.0056,0.1237,-0.1058,0.0147,0.2813,0.375,0.3438,0.8032,0.3417,0.0693,0.0371,0.240895965,-0.027380397,0.035314027,0.069574117,-0.083809835,0.005374015,-0.101013453,-0.025161304,-0.091386705,-0.022406432,-0.015923919,0.06601,0.056830408,0.18703724,0.044426161,0.09396944,0.182203805,0.128077678,0.097266833,0.210188435,0.078229851,0.159628914,0.054062314,0.106610792,0.150313013,0.140122531,0.095827098,0.215205487
pg33664-7,0.0221,0.2523,0.209,0.0981,0.0311,0.0213,0.032,0.0653,0.0529,0.0006,0.0043,0.0147,0.0104,0.1169,-0.1554,0.0174,0.375,0.2188,0.4063,0.7921,0.4542,0.0693,0.0371,0.240895965,-0.027380397,0.035314027,0.069574117,-0.083809835,0.005374015,-0.101013453,-0.025161304,-0.091386705,-0.022406432,-0.015923919,0.06601,0.056830408,0.18703724,0.044426161,0.09396944,0.182203805,0.128077678,0.097266833,0.210188435,0.078229851,0.159628914,0.054062314,0.106610792,0.150313013,0.140122531,0.095827098,0.215205487
pg33664-8,0.0198,0.23,0.2713,0.0917,0.0318,0.0235,0.034,0.0679,0.0498,0.0004,0.0045,0.0144,0.0075,0.1212,-0.1169,0.0158,0.2188,0.4375,0.3438,0.7868,0.6064,0.0693,0.0371,0.240895965,-0.027380397,0.035314027,0.069574117,-0.083809835,0.005374015,-0.101013453,-0.025161304,-0.091386705,-0.022406432,-0.015923919,0.06601,0.056830408,0.18703724,0.044426161,0.09396944,0.182203805,0.128077678,0.097266833,0.210188435,0.078229851,0.159628914,0.054062314,0.106610792,0.150313013,0.140122531,0.095827098,0.215205487
pg33664-9,0.0223,0.1663,0.3145,0.0626,0.0312,0.0265,0.0427,0.074,0.047,0.0003,0.0098,0.0097,0.0078,0.1365,-0.0926,0.0191,0.3548,0.1613,0.4839,0.7412,0.408,0.0693,0.0371,0.240895965,-0.027380397,0.035314027,0.069574117,-0.083809835,0.005374015,-0.101013453,-0.025161304,-0.091386705,-0.022406432,-0.015923919,0.06601,0.056830408,0.18703724,0.044426161,0.09396944,0.182203805,0.128077678,0.097266833,0.210188435,0.078229851,0.159628914,0.054062314,0.106610792,0.150313013,0.140122531,0.095827098,0.215205487
pg33664-13,0.021,0.2133,0.2078,0.0689,0.027,0.0251,0.0402,0.0788,0.0373,0.0002,0.0119,0.0078,0.0103,0.139,-0.0377,0.0164,0.3571,0.1071,0.5357,0.7345,0.493,0.0693,0.0371,0.240895965,-0.027380397,0.035314027,0.069574117,-0.083809835,0.005374015,-0.101013453,-0.025161304,-0.091386705,-0.022406432,-0.015923919,0.06601,0.056830408,0.18703724,0.044426161,0.09396944,0.182203805,0.128077678,0.097266833,0.210188435,0.078229851,0.159628914,0.054062314,0.106610792,0.150313013,0.140122531,0.095827098,0.215205487
pg33664-11,0.0192,0.1959,0.2106,0.0712,0.0304,0.023,0.0415,0.0795,0.0375,0,0.012,0.0064,0.0092,0.1394,-0.0261,0.017,0.1613,0.129,0.7097,0.7218,0.5709,0.0693,0.0371,0.240895965,-0.027380397,0.035314027,0.069574117,-0.083809835,0.005374015,-0.101013453,-0.025161304,-0.091386705,-0.022406432,-0.015923919,0.06601,0.056830408,0.18703724,0.044426161,0.09396944,0.182203805,0.128077678,0.097266833,0.210188435,0.078229851,0.159628914,0.054062314,0.106610792,0.150313013,0.140122531,0.095827098,0.215205487
pg33664-12,0.0212,0.2264,0.1553,0.0747,0.0322,0.0234,0.0403,0.0705,0.0416,0,0.0127,0.0091,0.008,0.1326,-0.0531,0.0176,0.2188,0.25,0.5313,0.7339,0.547,0.0693,0.0371,0.240895965,-0.027380397,0.035314027,0.069574117,-0.083809835,0.005374015,-0.101013453,-0.025161304,-0.091386705,-0.022406432,-0.015923919,0.06601,0.056830408,0.18703724,0.044426161,0.09396944,0.182203805,0.128077678,0.097266833,0.210188435,0.078229851,0.159628914,0.054062314,0.106610792,0.150313013,0.140122531,0.095827098,0.215205487
pg33664-10,0.0214,0.1821,0.2842,0.0666,0.0284,0.0295,0.0407,0.0768,0.0436,0.0001,0.0098,0.009,0.0063,0.1364,-0.0601,0.0191,0.2813,0.25,0.4688,0.7372,0.4886,0.0693,0.0371,0.240895965,-0.027380397,0.035314027,0.069574117,-0.083809835,0.005374015,-0.101013453,-0.025161304,-0.091386705,-0.022406432,-0.015923919,0.06601,0.056830408,0.18703724,0.044426161,0.09396944,0.182203805,0.128077678,0.097266833,0.210188435,0.078229851,0.159628914,0.054062314,0.106610792,0.150313013,0.140122531,0.095827098,0.215205487
pg33490-9,0.0259,0.1635,0.3872,0.071,0.0336,0.0258,0.034,0.0563,0.0449,0.0002,0.0097,0.0186,0.0114,0.1188,-0.0906,0.0151,0.1944,0.3889,0.4167,0.6746,0.7125,0.2626,-0.1519,0.269274417,-0.012660901,-0.007646941,0.057406703,-0.090946527,-0.019359436,-0.104766374,-0.010661993,-0.065914575,-0.014724373,-0.014609722,0.06366,0.09331055,0.155812561,0.055619308,0.130470729,0.128007977,0.125945992,0.115584069,0.195248814,0.088617436,0.199817505,0.043892532,0.113052157,0.137906193,0.126444831,0.121864236,0.16840511
pg33490-6,0.0266,0.2596,0.3964,0.0609,0.0327,0.0248,0.0331,0.0509,0.0463,0.0001,0.011,0.0122,0.009,0.1073,-0.0919,0.0183,0.2286,0.4,0.3714,0.5997,0.2448,0.2626,-0.1519,0.269274417,-0.012660901,-0.007646941,0.057406703,-0.090946527,-0.019359436,-0.104766374,-0.010661993,-0.065914575,-0.014724373,-0.014609722,0.06366,0.09331055,0.155812561,0.055619308,0.130470729,0.128007977,0.125945992,0.115584069,0.195248814,0.088617436,0.199817505,0.043892532,0.113052157,0.137906193,0.126444831,0.121864236,0.16840511
pg33490-5,0.0314,0.1843,0.4481,0.0701,0.033,0.0226,0.0301,0.0538,0.0484,0,0.0093,0.0159,0.0105,0.1091,-0.1242,0.0217,0.1111,0.25,0.6389,0.6631,0.4561,0.2626,-0.1519,0.269274417,-0.012660901,-0.007646941,0.057406703,-0.090946527,-0.019359436,-0.104766374,-0.010661993,-0.065914575,-0.014724373,-0.014609722,0.06366,0.09331055,0.155812561,0.055619308,0.130470729,0.128007977,0.125945992,0.115584069,0.195248814,0.088617436,0.199817505,0.043892532,0.113052157,0.137906193,0.126444831,0.121864236,0.16840511
pg33490-8,0.0368,0.2717,0.346,0.0701,0.0348,0.0238,0.0287,0.0559,0.0505,0,0.0073,0.0131,0.0138,0.105,-0.1504,0.0242,0.4722,0.1389,0.3889,0.6619,0.4764,0.2626,-0.1519,0.269274417,-0.012660901,-0.007646941,0.057406703,-0.090946527,-0.019359436,-0.104766374,-0.010661993,-0.065914575,-0.014724373,-0.014609722,0.06366,0.09331055,0.155812561,0.055619308,0.130470729,0.128007977,0.125945992,0.115584069,0.195248814,0.088617436,0.199817505,0.043892532,0.113052157,0.137906193,0.126444831,0.121864236,0.16840511
pg33490-7,0.0377,0.2176,0.3559,0.0709,0.0311,0.025,0.0291,0.0552,0.0513,0.0002,0.0085,0.0153,0.0179,0.1083,-0.1642,0.0284,0.2778,0.3056,0.4167,0.6569,0.5395,0.2626,-0.1519,0.269274417,-0.012660901,-0.007646941,0.057406703,-0.090946527,-0.019359436,-0.104766374,-0.010661993,-0.065914575,-0.014724373,-0.014609722,0.06366,0.09331055,0.155812561,0.055619308,0.130470729,0.128007977,0.125945992,0.115584069,0.195248814,0.088617436,0.199817505,0.043892532,0.113052157,0.137906193,0.126444831,0.121864236,0.16840511
pg33490-2,0.0242,0.3641,0.1953,0.0762,0.0257,0.0232,0.0304,0.0527,0.0467,0.0001,0.0077,0.0106,0.008,0.1015,-0.0853,0.0178,0.2778,0.1944,0.5278,0.6744,0.3778,0.2626,-0.1519,0.269274417,-0.012660901,-0.007646941,0.057406703,-0.090946527,-0.019359436,-0.104766374,-0.010661993,-0.065914575,-0.014724373,-0.014609722,0.06366,0.09331055,0.155812561,0.055619308,0.130470729,0.128007977,0.125945992,0.115584069,0.195248814,0.088617436,0.199817505,0.043892532,0.113052157,0.137906193,0.126444831,0.121864236,0.16840511
pg33490-1,0.0225,0.485,0.1054,0.0651,0.025,0.0241,0.0304,0.0529,0.0466,0.0004,0.007,0.0089,0.0098,0.0996,-0.1163,0.0162,0.2353,0.2353,0.5294,0.6647,0.5052,0.2626,-0.1519,0.269274417,-0.012660901,-0.007646941,0.057406703,-0.090946527,-0.019359436,-0.104766374,-0.010661993,-0.065914575,-0.014724373,-0.014609722,0.06366,0.09331055,0.155812561,0.055619308,0.130470729,0.128007977,0.125945992,0.115584069,0.195248814,0.088617436,0.199817505,0.043892532,0.113052157,0.137906193,0.126444831,0.121864236,0.16840511
pg33490-4,0.0276,0.3972,0.1672,0.0708,0.0279,0.0249,0.0299,0.0523,0.0479,0.0001,0.0069,0.0113,0.0106,0.1005,-0.1082,0.0201,0.4722,0.1667,0.3611,0.6394,0.6931,0.2626,-0.1519,0.269274417,-0.012660901,-0.007646941,0.057406703,-0.090946527,-0.019359436,-0.104766374,-0.010661993,-0.065914575,-0.014724373,-0.014609722,0.06366,0.09331055,0.155812561,0.055619308,0.130470729,0.128007977,0.125945992,0.115584069,0.195248814,0.088617436,0.199817505,0.043892532,0.113052157,0.137906193,0.126444831,0.121864236,0.16840511
pg33490-3,0.0288,0.389,0.1061,0.084,0.0291,0.0213,0.029,0.0516,0.0492,0.0003,0.0069,0.0112,0.0107,0.099,-0.1347,0.0223,0.2857,0.1429,0.5714,0.7042,0.5281,0.2626,-0.1519,0.269274417,-0.012660901,-0.007646941,0.057406703,-0.090946527,-0.019359436,-0.104766374,-0.010661993,-0.065914575,-0.014724373,-0.014609722,0.06366,0.09331055,0.155812561,0.055619308,0.130470729,0.128007977,0.125945992,0.115584069,0.195248814,0.088617436,0.199817505,0.043892532,0.113052157,0.137906193,0.126444831,0.121864236,0.16840511
pg33490-11,0.0314,0.0616,0.5205,0.0668,0.0306,0.0264,0.0277,0.0502,0.0472,0.0003,0.0085,0.0158,0.0129,0.1025,-0.1342,0.0205,0.3235,0.1471,0.5294,0.6745,0.58,0.2626,-0.1519,0.269274417,-0.012660901,-0.007646941,0.057406703,-0.090946527,-0.019359436,-0.104766374,-0.010661993,-0.065914575,-0.014724373,-0.014609722,0.06366,0.09331055,0.155812561,0.055619308,0.130470729,0.128007977,0.125945992,0.115584069,0.195248814,0.088617436,0.199817505,0.043892532,0.113052157,0.137906193,0.126444831,0.121864236,0.16840511
pg33490-10,0.031,0.0388,0.4782,0.0719,0.0312,0.0292,0.0301,0.0517,0.0488,0.0005,0.0088,0.014,0.0149,0.1051,-0.1504,0.0209,0.3889,0.1944,0.4167,0.6849,0.3719,0.2626,-0.1519,0.269274417,-0.012660901,-0.007646941,0.057406703,-0.090946527,-0.019359436,-0.104766374,-0.010661993,-0.065914575,-0.014724373,-0.014609722,0.06366,0.09331055,0.155812561,0.055619308,0.130470729,0.128007977,0.125945992,0.115584069,0.195248814,0.088617436,0.199817505,0.043892532,0.113052157,0.137906193,0.126444831,0.121864236,0.16840511
pg33490-13,0.0302,0.1829,0.3996,0.0685,0.0321,0.0275,0.0324,0.0539,0.0433,0,0.0093,0.0164,0.012,0.112,-0.1021,0.0175,0.1944,0.4722,0.3333,0.7024,0.6005,0.2626,-0.1519,0.269274417,-0.012660901,-0.007646941,0.057406703,-0.090946527,-0.019359436,-0.104766374,-0.010661993,-0.065914575,-0.014724373,-0.014609722,0.06366,0.09331055,0.155812561,0.055619308,0.130470729,0.128007977,0.125945992,0.115584069,0.195248814,0.088617436,0.199817505,0.043892532,0.113052157,0.137906193,0.126444831,0.121864236,0.16840511
pg33490-12,0.0315,0.1061,0.3977,0.0754,0.0292,0.0242,0.0312,0.0562,0.044,0.0001,0.0094,0.0143,0.0183,0.1112,-0.1518,0.0224,0.3056,0.3056,0.3889,0.7279,0.6347,0.2626,-0.1519,0.269274417,-0.012660901,-0.007646941,0.057406703,-0.090946527,-0.019359436,-0.104766374,-0.010661993,-0.065914575,-0.014724373,-0.014609722,0.06366,0.09331055,0.155812561,0.055619308,0.130470729,0.128007977,0.125945992,0.115584069,0.195248814,0.088617436,0.199817505,0.043892532,0.113052157,0.137906193,0.126444831,0.121864236,0.16840511
pg33490-15,0.0304,0.166,0.4715,0.069,0.0277,0.0272,0.0287,0.0552,0.042,0.0004,0.0102,0.0116,0.0157,0.1062,-0.1179,0.0195,0.1212,0.4848,0.3939,0.7454,0.4288,0.2626,-0.1519,0.269274417,-0.012660901,-0.007646941,0.057406703,-0.090946527,-0.019359436,-0.104766374,-0.010661993,-0.065914575,-0.014724373,-0.014609722,0.06366,0.09331055,0.155812561,0.055619308,0.130470729,0.128007977,0.125945992,0.115584069,0.195248814,0.088617436,0.199817505,0.043892532,0.113052157,0.137906193,0.126444831,0.121864236,0.16840511
pg33490-14,0.0319,0.1598,0.3155,0.0894,0.0301,0.0266,0.0306,0.0512,0.0493,0,0.008,0.0135,0.0161,0.1033,-0.1563,0.0221,0.4286,0.2857,0.2857,0.749,0.3704,0.2626,-0.1519,0.269274417,-0.012660901,-0.007646941,0.057406703,-0.090946527,-0.019359436,-0.104766374,-0.010661993,-0.065914575,-0.014724373,-0.014609722,0.06366,0.09331055,0.155812561,0.055619308,0.130470729,0.128007977,0.125945992,0.115584069,0.195248814,0.088617436,0.199817505,0.043892532,0.113052157,0.137906193,0.126444831,0.121864236,0.16840511
pg2701-5,0.0156,0.2963,0.0382,0.0715,0.0176,0.0279,0.0382,0.0843,0.0288,0.0005,0.0191,0.0069,0.009,0.149,0.046,0.0158,0.381,0.1429,0.4762,0.6937,0.3814,0.1028,0.5021,0.367781184,0.00025781,-0.096300111,-0.012503795,-0.086788548,0.010561384,-0.099234534,0.017302218,-0.085457992,-0.015617616,0.011022211,0.0657,0.091857903,0.211717086,0.061631322,0.134292056,0.096446537,0.124941933,0.089466788,0.189646374,0.102254714,0.173738322,0.062949042,0.151337491,0.081280442,0.142444904,0.080201549,0.205793535
pg2701-4,0.011,0.2671,0.0459,0.0657,0.0193,0.0263,0.0387,0.0768,0.0285,0.0007,0.016,0.0081,0.0066,0.1403,0.088,0.0105,0.2632,0.2105,0.5263,0.6473,0.4748,0.1028,0.5021,0.367781184,0.00025781,-0.096300111,-0.012503795,-0.086788548,0.010561384,-0.099234534,0.017302218,-0.085457992,-0.015617616,0.011022211,0.0657,0.091857903,0.211717086,0.061631322,0.134292056,0.096446537,0.124941933,0.089466788,0.189646374,0.102254714,0.173738322,0.062949042,0.151337491,0.081280442,0.142444904,0.080201549,0.205793535
pg2701-7,0.0072,0.3213,0.0165,0.0415,0.0192,0.0292,0.0359,0.0765,0.0292,0.0014,0.0216,0.0032,0.0029,0.1386,0.1866,0.0031,0.381,0.1429,0.4762,0.5323,0.7152,0.1028,0.5021,0.367781184,0.00025781,-0.096300111,-0.012503795,-0.086788548,0.010561384,-0.099234534,0.017302218,-0.085457992,-0.015617616,0.011022211,0.0657,0.091857903,0.211717086,0.061631322,0.134292056,0.096446537,0.124941933,0.089466788,0.189646374,0.102254714,0.173738322,0.062949042,0.151337491,0.081280442,0.142444904,0.080201549,0.205793535
pg2701-6,0.0064,0.3514,0.0271,0.0497,0.0203,0.0265,0.0347,0.0819,0.0257,0.0001,0.0152,0.0046,0.0065,0.1365,0.1392,0.0021,0.1579,0.1579,0.6842,0.5931,0.5306,0.1028,0.5021,0.367781184,0.00025781,-0.096300111,-0.012503795,-0.086788548,0.010561384,-0.099234534,0.017302218,-0.085457992,-0.015617616,0.011022211,0.0657,0.091857903,0.211717086,0.061631322,0.134292056,0.096446537,0.124941933,0.089466788,0.189646374,0.102254714,0.173738322,0.062949042,0.151337491,0.081280442,0.142444904,0.080201549,0.205793535
pg2701-1,0.0122,0.2046,0.0108,0.0499,0.0151,0.0295,0.035,0.0654,0.0381,0.0005,0.0075,0.0143,0.0032,0.1227,0.0195,0.0106,0.4762,0.0476,0.4762,0.663,0.3389,0.1028,0.5021,0.367781184,0.00025781,-0.096300111,-0.012503795,-0.086788548,0.010561384,-0.099234534,0.017302218,-0.085457992,-0.015617616,0.011022211,0.0657,0.091857903,0.211717086,0.061631322,0.134292056,0.096446537,0.124941933,0.089466788,0.189646374,0.102254714,0.173738322,0.062949042,0.151337491,0.081280442,0.142444904,0.080201549,0.205793535
pg2701-3,0.0062,0.4523,0.0119,0.0585,0.0253,0.0267,0.0387,0.0709,0.0286,0.0003,0.0173,0.0071,0.0053,0.1343,0.1375,0.0035,0,0.25,0.75,0.644,0.57,0.1028,0.5021,0.367781184,0.00025781,-0.096300111,-0.012503795,-0.086788548,0.010561384,-0.099234534,0.017302218,-0.085457992,-0.015617616,0.011022211,0.0657,0.091857903,0.211717086,0.061631322,0.134292056,0.096446537,0.124941933,0.089466788,0.189646374,0.102254714,0.173738322,0.062949042,0.151337491,0.081280442,0.142444904,0.080201549,0.205793535
pg2701-2,0.0088,0.3011,0.008,0.0678,0.0202,0.0332,0.0404,0.0719,0.0308,0.0004,0.0103,0.0078,0.0037,0.1308,0.1392,0.0052,0.2857,0.1429,0.5714,0.6435,0.5751,0.1028,0.5021,0.367781184,0.00025781,-0.096300111,-0.012503795,-0.086788548,0.010561384,-0.099234534,0.017302218,-0.085457992,-0.015617616,0.011022211,0.0657,0.091857903,0.211717086,0.061631322,0.134292056,0.096446537,0.124941933,0.089466788,0.189646374,0.102254714,0.173738322,0.062949042,0.151337491,0.081280442,0.142444904,0.080201549,0.205793535
pg2701-9,0.0075,0.3638,0.0259,0.0393,0.0187,0.0315,0.0363,0.0734,0.02,0.0015,0.0138,0.0043,0.0024,0.1293,0.3867,0.0021,0.0952,0.1905,0.7143,0.4657,0.4202,0.1028,0.5021,0.367781184,0.00025781,-0.096300111,-0.012503795,-0.086788548,0.010561384,-0.099234534,0.017302218,-0.085457992,-0.015617616,0.011022211,0.0657,0.091857903,0.211717086,0.061631322,0.134292056,0.096446537,0.124941933,0.089466788,0.189646374,0.102254714,0.173738322,0.062949042,0.151337491,0.081280442,0.142444904,0.080201549,0.205793535
pg2701-8,0.0117,0.2562,0.0037,0.0599,0.0213,0.0229,0.0327,0.0773,0.0323,0.0008,0.0187,0.0088,0.0249,0.1383,-0.1129,0.0056,0.25,0.35,0.4,0.7261,0.4795,0.1028,0.5021,0.367781184,0.00025781,-0.096300111,-0.012503795,-0.086788548,0.010561384,-0.099234534,0.017302218,-0.085457992,-0.015617616,0.011022211,0.0657,0.091857903,0.211717086,0.061631322,0.134292056,0.096446537,0.124941933,0.089466788,0.189646374,0.102254714,0.173738322,0.062949042,0.151337491,0.081280442,0.142444904,0.080201549,0.205793535
pg2701-18,0.0098,0.2995,0.0281,0.0462,0.0179,0.0312,0.0348,0.0793,0.0303,0.0001,0.0155,0.0024,0.0049,0.1321,0.1211,0.0047,0.1579,0.1053,0.7368,0.615,0.4726,0.1028,0.5021,0.367781184,0.00025781,-0.096300111,-0.012503795,-0.086788548,0.010561384,-0.099234534,0.017302218,-0.085457992,-0.015617616,0.011022211,0.0657,0.091857903,0.211717086,0.061631322,0.134292056,0.096446537,0.124941933,0.089466788,0.189646374,0.102254714,0.173738322,0.062949042,0.151337491,0.081280442,0.142444904,0.080201549,0.205793535
pg2701-17,0.0084,0.255,0.0474,0.0359,0.019,0.0326,0.0388,0.0731,0.0255,0.0006,0.0136,0.0035,0.0033,0.1296,0.2175,0.0027,0,0.2222,0.7778,0.5272,0.6414,0.1028,0.5021,0.367781184,0.00025781,-0.096300111,-0.012503795,-0.086788548,0.010561384,-0.099234534,0.017302218,-0.085457992,-0.015617616,0.011022211,0.0657,0.091857903,0.211717086,0.061631322,0.134292056,0.096446537,0.124941933,0.089466788,0.189646374,0.102254714,0.173738322,0.062949042,0.151337491,0.081280442,0.142444904,0.080201549,0.205793535
pg2701-16,0.0069,0.3993,0.0117,0.0395,0.0201,0.0286,0.0348,0.0715,0.0269,0.001,0.0137,0.004,0.0039,0.125,0.1966,0.0022,0.3684,0.0526,0.5789,0.58,0.7287,0.1028,0.5021,0.367781184,0.00025781,-0.096300111,-0.012503795,-0.086788548,0.010561384,-0.099234534,0.017302218,-0.085457992,-0.015617616,0.011022211,0.0657,0.091857903,0.211717086,0.061631322,0.134292056,0.096446537,0.124941933,0.089466788,0.189646374,0.102254714,0.173738322,0.062949042,0.151337491,0.081280442,0.142444904,0.080201549,0.205793535
pg2701-15,0.0079,0.3088,0.0117,0.0421,0.0178,0.0293,0.0309,0.0741,0.0268,0.0004,0.0138,0.0071,0.0052,0.1263,0.162,0.0038,0.1053,0.2105,0.6842,0.5894,0.5231,0.1028,0.5021,0.367781184,0.00025781,-0.096300111,-0.012503795,-0.086788548,0.010561384,-0.099234534,0.017302218,-0.085457992,-0.015617616,0.011022211,0.0657,0.091857903,0.211717086,0.061631322,0.134292056,0.096446537,0.124941933,0.089466788,0.189646374,0.102254714,0.173738322,0.062949042,0.151337491,0.081280442,0.142444904,0.080201549,0.205793535
pg2701-14,0.0116,0.3406,0.0247,0.0523,0.0164,0.0281,0.0351,0.0742,0.028,0.0006,0.0133,0.0057,0.0063,0.1289,0.0755,0.0085,0.1667,0.2222,0.6111,0.6537,0.351,0.1028,0.5021,0.367781184,0.00025781,-0.096300111,-0.012503795,-0.086788548,0.010561384,-0.099234534,0.017302218,-0.085457992,-0.015617616,0.011022211,0.0657,0.091857903,0.211717086,0.061631322,0.134292056,0.096446537,0.124941933,0.089466788,0.189646374,0.102254714,0.173738322,0.062949042,0.151337491,0.081280442,0.142444904,0.080201549,0.205793535
pg2701-13,0.0107,0.2922,0.0292,0.0412,0.0204,0.0252,0.0353,0.0778,0.0251,0.0007,0.0153,0.0041,0.0068,0.1332,0.1495,0.008,0.15,0.1,0.75,0.6373,0.2664,0.1028,0.5021,0.367781184,0.00025781,-0.096300111,-0.012503795,-0.086788548,0.010561384,-0.099234534,0.017302218,-0.085457992,-0.015617616,0.011022211,0.0657,0.091857903,0.211717086,0.061631322,0.134292056,0.096446537,0.124941933,0.089466788,0.189646374,0.102254714,0.173738322,0.062949042,0.151337491,0.081280442,0.142444904,0.080201549,0.205793535
pg2701-12,0.0104,0.3192,0.0148,0.0385,0.0157,0.032,0.0354,0.0691,0.0283,0.0003,0.0137,0.0018,0.0028,0.1203,0.175,0.0031,0.3,0.1,0.6,0.5668,0.4271,0.1028,0.5021,0.367781184,0.00025781,-0.096300111,-0.012503795,-0.086788548,0.010561384,-0.099234534,0.017302218,-0.085457992,-0.015617616,0.011022211,0.0657,0.091857903,0.211717086,0.061631322,0.134292056,0.096446537,0.124941933,0.089466788,0.189646374,0.102254714,0.173738322,0.062949042,0.151337491,0.081280442,0.142444904,0.080201549,0.205793535
pg2701-11,0.009,0.3131,0.0552,0.0489,0.0236,0.03,0.0393,0.0771,0.0249,0.0012,0.0175,0.0046,0.0043,0.1397,0.2329,0.0043,0.0526,0.1053,0.8421,0.5624,0.3636,0.1028,0.5021,0.367781184,0.00025781,-0.096300111,-0.012503795,-0.086788548,0.010561384,-0.099234534,0.017302218,-0.085457992,-0.015617616,0.011022211,0.0657,0.091857903,0.211717086,0.061631322,0.134292056,0.096446537,0.124941933,0.089466788,0.189646374,0.102254714,0.173738322,0.062949042,0.151337491,0.081280442,0.142444904,0.080201549,0.205793535
pg2701-19,0.0087,0.2728,0.0131,0.059,0.0176,0.0276,0.0436,0.0853,0.0255,0.001,0.0212,0.0104,0.0124,0.1615,0.0866,0.0087,0.1667,0.1667,0.6667,0.6845,0.48,0.1028,0.5021,0.367781184,0.00025781,-0.096300111,-0.012503795,-0.086788548,0.010561384,-0.099234534,0.017302218,-0.085457992,-0.015617616,0.011022211,0.0657,0.091857903,0.211717086,0.061631322,0.134292056,0.096446537,0.124941933,0.089466788,0.189646374,0.102254714,0.173738322,0.062949042,0.151337491,0.081280442,0.142444904,0.080201549,0.205793535
pg2701-10,0.0093,0.3177,0.0297,0.0403,0.0236,0.0268,0.0351,0.0716,0.0271,0.0006,0.0149,0.005,0.0077,0.1272,0.1243,0.0061,0.05,0.1,0.85,0.6061,0.1675,0.1028,0.5021,0.367781184,0.00025781,-0.096300111,-0.012503795,-0.086788548,0.010561384,-0.099234534,0.017302218,-0.085457992,-0.015617616,0.011022211,0.0657,0.091857903,0.211717086,0.061631322,0.134292056,0.096446537,0.124941933,0.089466788,0.189646374,0.102254714,0.173738322,0.062949042,0.151337491,0.081280442,0.142444904,0.080201549,0.205793535
pg2701-24,0.011,0.3516,0.0313,0.0461,0.0212,0.024,0.0369,0.0756,0.0246,0.0009,0.021,0.0145,0.0194,0.1489,-0.0014,0.008,0.1,0.1,0.8,0.7304,0.4936,0.1028,0.5021,0.367781184,0.00025781,-0.096300111,-0.012503795,-0.086788548,0.010561384,-0.099234534,0.017302218,-0.085457992,-0.015617616,0.011022211,0.0657,0.091857903,0.211717086,0.061631322,0.134292056,0.096446537,0.124941933,0.089466788,0.189646374,0.102254714,0.173738322,0.062949042,0.151337491,0.081280442,0.142444904,0.080201549,0.205793535
pg2701-23,0.0128,0.2928,0.0594,0.0535,0.0206,0.0259,0.036,0.0731,0.027,0.0007,0.0226,0.0135,0.0196,0.1459,-0.0358,0.0097,0.2632,0.2632,0.4737,0.7393,0.5092,0.1028,0.5021,0.367781184,0.00025781,-0.096300111,-0.012503795,-0.086788548,0.010561384,-0.099234534,0.017302218,-0.085457992,-0.015617616,0.011022211,0.0657,0.091857903,0.211717086,0.061631322,0.134292056,0.096446537,0.124941933,0.089466788,0.189646374,0.102254714,0.173738322,0.062949042,0.151337491,0.081280442,0.142444904,0.080201549,0.205793535
pg2701-22,0.0127,0.2351,0.0284,0.0538,0.0202,0.0244,0.0355,0.0728,0.0321,0.0011,0.0198,0.0082,0.0164,0.1374,-0.0531,0.0101,0.0526,0.1053,0.8421,0.7473,0.5258,0.1028,0.5021,0.367781184,0.00025781,-0.096300111,-0.012503795,-0.086788548,0.010561384,-0.099234534,0.017302218,-0.085457992,-0.015617616,0.011022211,0.0657,0.091857903,0.211717086,0.061631322,0.134292056,0.096446537,0.124941933,0.089466788,0.189646374,0.102254714,0.173738322,0.062949042,0.151337491,0.081280442,0.142444904,0.080201549,0.205793535
pg2701-21,0.012,0.3665,0.0326,0.0449,0.0225,0.0255,0.0414,0.0835,0.0244,0.0018,0.0217,0.0055,0.0112,0.1539,0.1086,0.0082,0.3684,0.0526,0.5789,0.6474,0.4481,0.1028,0.5021,0.367781184,0.00025781,-0.096300111,-0.012503795,-0.086788548,0.010561384,-0.099234534,0.017302218,-0.085457992,-0.015617616,0.011022211,0.0657,0.091857903,0.211717086,0.061631322,0.134292056,0.096446537,0.124941933,0.089466788,0.189646374,0.102254714,0.173738322,0.062949042,0.151337491,0.081280442,0.142444904,0.080201549,0.205793535
pg2701-20,0.0096,0.3049,0.0017,0.0434,0.0163,0.028,0.0353,0.083,0.0276,0.0011,0.0179,0.0053,0.005,0.1426,0.153,0.0005,0.2105,0.1579,0.6316,0.5659,0.4122,0.1028,0.5021,0.367781184,0.00025781,-0.096300111,-0.012503795,-0.086788548,0.010561384,-0.099234534,0.017302218,-0.085457992,-0.015617616,0.011022211,0.0657,0.091857903,0.211717086,0.061631322,0.134292056,0.096446537,0.124941933,0.089466788,0.189646374,0.102254714,0.173738322,0.062949042,0.151337491,0.081280442,0.142444904,0.080201549,0.205793535
pg33468-2,0.0184,0.3258,0.0704,0.0566,0.0229,0.0271,0.0351,0.0876,0.027,0.0006,0.0105,0.01,0.005,0.1438,0.1443,0.0178,0.1364,0.0455,0.8182,0.5709,0.537,0.189,0.3704,0.195904605,-0.01656607,-0.000596587,0.065948414,-0.06271884,-0.008423557,-0.07095401,-0.024884643,-0.061635168,-0.016074143,-0.005182524,0.06979,0.09429797,0.156334913,0.039775156,0.101518478,0.140077352,0.10634347,0.100072513,0.261580148,0.082853342,0.152296806,0.050307186,0.113296398,0.117134772,0.13568111,0.094340403,0.254089983
pg33468-3,0.0184,0.2742,0.0403,0.055,0.0194,0.0207,0.0317,0.092,0.0277,0.0006,0.0102,0.0083,0.006,0.1428,0.162,0.0184,0.2857,0.0952,0.619,0.5795,0.6694,0.189,0.3704,0.195904605,-0.01656607,-0.000596587,0.065948414,-0.06271884,-0.008423557,-0.07095401,-0.024884643,-0.061635168,-0.016074143,-0.005182524,0.06979,0.09429797,0.156334913,0.039775156,0.101518478,0.140077352,0.10634347,0.100072513,0.261580148,0.082853342,0.152296806,0.050307186,0.113296398,0.117134772,0.13568111,0.094340403,0.254089983
pg33468-4,0.0186,0.2513,0.0479,0.0574,0.0198,0.025,0.0302,0.0867,0.0305,0,0.0092,0.0055,0.0068,0.1316,0.0742,0.0227,0.1818,0.1364,0.6818,0.6247,0.3962,0.189,0.3704,0.195904605,-0.01656607,-0.000596587,0.065948414,-0.06271884,-0.008423557,-0.07095401,-0.024884643,-0.061635168,-0.016074143,-0.005182524,0.06979,0.09429797,0.156334913,0.039775156,0.101518478,0.140077352,0.10634347,0.100072513,0.261580148,0.082853342,0.152296806,0.050307186,0.113296398,0.117134772,0.13568111,0.094340403,0.254089983
pg33468-5,0.0188,0.2379,0.0806,0.0591,0.0191,0.0235,0.0295,0.0856,0.0299,0.0002,0.0091,0.0078,0.0066,0.1322,0.1259,0.0237,0.15,0.25,0.6,0.5787,0.4511,0.189,0.3704,0.195904605,-0.01656607,-0.000596587,0.065948414,-0.06271884,-0.008423557,-0.07095401,-0.024884643,-0.061635168,-0.016074143,-0.005182524,0.06979,0.09429797,0.156334913,0.039775156,0.101518478,0.140077352,0.10634347,0.100072513,0.261580148,0.082853342,0.152296806,0.050307186,0.113296398,0.117134772,0.13568111,0.094340403,0.254089983
pg33468-1,0.0145,0.302,0.0639,0.0577,0.0221,0.0261,0.0337,0.0825,0.0269,0.0005,0.0084,0.0052,0.0054,0.1303,0.1443,0.0141,0.1176,0.0588,0.8235,0.5843,0.2592,0.189,0.3704,0.195904605,-0.01656607,-0.000596587,0.065948414,-0.06271884,-0.008423557,-0.07095401,-0.024884643,-0.061635168,-0.016074143,-0.005182524,0.06979,0.09429797,0.156334913,0.039775156,0.101518478,0.140077352,0.10634347,0.100072513,0.261580148,0.082853342,0.152296806,0.050307186,0.113296398,0.117134772,0.13568111,0.094340403,0.254089983
pg33468-6,0.0226,0.25,0.0883,0.0568,0.0168,0.0221,0.0259,0.0909,0.0316,0.0003,0.0079,0.0069,0.0076,0.1319,0.0341,0.0307,0.3182,0.1364,0.5455,0.6182,0.6135,0.189,0.3704,0.195904605,-0.01656607,-0.000596587,0.065948414,-0.06271884,-0.008423557,-0.07095401,-0.024884643,-0.061635168,-0.016074143,-0.005182524,0.06979,0.09429797,0.156334913,0.039775156,0.101518478,0.140077352,0.10634347,0.100072513,0.261580148,0.082853342,0.152296806,0.050307186,0.113296398,0.117134772,0.13568111,0.094340403,0.254089983
pg33468-7,0.0139,0.3302,0.1001,0.0606,0.0233,0.0243,0.0356,0.0853,0.0299,0.0009,0.0093,0.0097,0.0088,0.1408,0.0571,0.0171,0.0909,0.2727,0.6364,0.6829,0.3692,0.189,0.3704,0.195904605,-0.01656607,-0.000596587,0.065948414,-0.06271884,-0.008423557,-0.07095401,-0.024884643,-0.061635168,-0.016074143,-0.005182524,0.06979,0.09429797,0.156334913,0.039775156,0.101518478,0.140077352,0.10634347,0.100072513,0.261580148,0.082853342,0.152296806,0.050307186,0.113296398,0.117134772,0.13568111,0.094340403,0.254089983
pg33468-8,0.0175,0.2691,0.015,0.0682,0.0184,0.0224,0.0286,0.0792,0.0354,0.0005,0.0097,0.0059,0.0056,0.1239,0.0376,0.0222,0.15,0.4,0.45,0.6636,0.6296,0.189,0.3704,0.195904605,-0.01656607,-0.000596587,0.065948414,-0.06271884,-0.008423557,-0.07095401,-0.024884643,-0.061635168,-0.016074143,-0.005182524,0.06979,0.09429797,0.156334913,0.039775156,0.101518478,0.140077352,0.10634347,0.100072513,0.261580148,0.082853342,0.152296806,0.050307186,0.113296398,0.117134772,0.13568111,0.094340403,0.254089983
pg33468-9,0.0212,0.2313,0.0359,0.0748,0.0255,0.0225,0.028,0.0798,0.0353,0.0009,0.0084,0.0072,0.005,0.1243,0.025,0.0237,0.1364,0.2727,0.5909,0.6646,0.3119,0.189,0.3704,0.195904605,-0.01656607,-0.000596587,0.065948414,-0.06271884,-0.008423557,-0.07095401,-0.024884643,-0.061635168,-0.016074143,-0.005182524,0.06979,0.09429797,0.156334913,0.039775156,0.101518478,0.140077352,0.10634347,0.100072513,0.261580148,0.082853342,0.152296806,0.050307186,0.113296398,0.117134772,0.13568111,0.094340403,0.254089983
pg33468-15,0.0189,0.285,0.1013,0.0621,0.0228,0.0224,0.0333,0.0804,0.0299,0.0005,0.0088,0.0076,0.0058,0.1306,0.0894,0.0247,0.3333,0.1905,0.4762,0.6381,0.4453,0.189,0.3704,0.195904605,-0.01656607,-0.000596587,0.065948414,-0.06271884,-0.008423557,-0.07095401,-0.024884643,-0.061635168,-0.016074143,-0.005182524,0.06979,0.09429797,0.156334913,0.039775156,0.101518478,0.140077352,0.10634347,0.100072513,0.261580148,0.082853342,0.152296806,0.050307186,0.113296398,0.117134772,0.13568111,0.094340403,0.254089983
pg33468-16,0.0207,0.2329,0.0948,0.0659,0.0199,0.0208,0.0322,0.0863,0.0329,0.0006,0.0099,0.0057,0.0046,0.1347,0.0628,0.0259,0.1579,0.1053,0.7368,0.6476,0.5625,0.189,0.3704,0.195904605,-0.01656607,-0.000596587,0.065948414,-0.06271884,-0.008423557,-0.07095401,-0.024884643,-0.061635168,-0.016074143,-0.005182524,0.06979,0.09429797,0.156334913,0.039775156,0.101518478,0.140077352,0.10634347,0.100072513,0.261580148,0.082853342,0.152296806,0.050307186,0.113296398,0.117134772,0.13568111,0.094340403,0.254089983
pg33468-13,0.021,0.1338,0.1072,0.0707,0.0235,0.0253,0.0307,0.0817,0.0313,0.0005,0.0091,0.0141,0.0062,0.1361,0.0675,0.0221,0.3182,0.1818,0.5,0.6695,0.5124,0.189,0.3704,0.195904605,-0.01656607,-0.000596587,0.065948414,-0.06271884,-0.008423557,-0.07095401,-0.024884643,-0.061635168,-0.016074143,-0.005182524,0.06979,0.09429797,0.156334913,0.039775156,0.101518478,0.140077352,0.10634347,0.100072513,0.261580148,0.082853342,0.152296806,0.050307186,0.113296398,0.117134772,0.13568111,0.094340403,0.254089983
pg33468-14,0.0203,0.2512,0.1801,0.0573,0.0243,0.0247,0.0336,0.0836,0.0286,0.0001,0.008,0.0073,0.0074,0.1326,0.0838,0.0229,0.2273,0.0909,0.6818,0.6454,0.5722,0.189,0.3704,0.195904605,-0.01656607,-0.000596587,0.065948414,-0.06271884,-0.008423557,-0.07095401,-0.024884643,-0.061635168,-0.016074143,-0.005182524,0.06979,0.09429797,0.156334913,0.039775156,0.101518478,0.140077352,0.10634347,0.100072513,0.261580148,0.082853342,0.152296806,0.050307186,0.113296398,0.117134772,0.13568111,0.094340403,0.254089983
pg33468-11,0.0208,0.2535,0.0495,0.0676,0.0192,0.0204,0.0292,0.0874,0.0283,0.0009,0.0112,0.0104,0.0057,0.1391,0.1148,0.0262,0.2857,0.2857,0.4286,0.6111,0.3295,0.189,0.3704,0.195904605,-0.01656607,-0.000596587,0.065948414,-0.06271884,-0.008423557,-0.07095401,-0.024884643,-0.061635168,-0.016074143,-0.005182524,0.06979,0.09429797,0.156334913,0.039775156,0.101518478,0.140077352,0.10634347,0.100072513,0.261580148,0.082853342,0.152296806,0.050307186,0.113296398,0.117134772,0.13568111,0.094340403,0.254089983
pg33468-12,0.0188,0.2791,0.0404,0.0615,0.0202,0.0236,0.0329,0.091,0.0284,0.0002,0.011,0.0062,0.0022,0.1413,0.1548,0.0222,0.1905,0.0952,0.7143,0.5894,0.5278,0.189,0.3704,0.195904605,-0.01656607,-0.000596587,0.065948414,-0.06271884,-0.008423557,-0.07095401,-0.024884643,-0.061635168,-0.016074143,-0.005182524,0.06979,0.09429797,0.156334913,0.039775156,0.101518478,0.140077352,0.10634347,0.100072513,0.261580148,0.082853342,0.152296806,0.050307186,0.113296398,0.117134772,0.13568111,0.094340403,0.254089983
pg33468-10,0.023,0.3215,0.0572,0.0665,0.0209,0.0239,0.0294,0.0824,0.0341,0.0007,0.0102,0.0095,0.0073,0.1322,0.013,0.0263,0.2857,0.2381,0.4762,0.6575,0.5724,0.189,0.3704,0.195904605,-0.01656607,-0.000596587,0.065948414,-0.06271884,-0.008423557,-0.07095401,-0.024884643,-0.061635168,-0.016074143,-0.005182524,0.06979,0.09429797,0.156334913,0.039775156,0.101518478,0.140077352,0.10634347,0.100072513,0.261580148,0.082853342,0.152296806,0.050307186,0.113296398,0.117134772,0.13568111,0.094340403,0.254089983
pg364-2,0.0244,0.3689,0.1199,0.0694,0.029,0.0224,0.0293,0.0449,0.0455,0.0001,0.0009,0.002,0.0031,0.0772,-0.0507,0.0189,0.3793,0.1724,0.4483,0.6784,0.6794,0.2759,-0.1773,0.141911919,-0.080134296,0.085557619,0.110059305,-0.073096362,-0.003647472,-0.063883325,-0.025890931,-0.090489852,-0.000386606,-0.016978892,0.0722,0.108198249,0.11669674,0.064010538,0.148528009,0.094620524,0.108394593,0.081028869,0.27852248,0.116250624,0.126572463,0.042699217,0.161322283,0.098232034,0.116745274,0.084319801,0.253858303
pg364-1,0.0263,0.3112,0.1681,0.0788,0.0253,0.0227,0.026,0.0502,0.0484,0.0003,0.0015,0.0034,0.0037,0.0814,-0.0913,0.0241,0.1786,0.0714,0.75,0.7444,0.6488,0.2759,-0.1773,0.141911919,-0.080134296,0.085557619,0.110059305,-0.073096362,-0.003647472,-0.063883325,-0.025890931,-0.090489852,-0.000386606,-0.016978892,0.0722,0.108198249,0.11669674,0.064010538,0.148528009,0.094620524,0.108394593,0.081028869,0.27852248,0.116250624,0.126572463,0.042699217,0.161322283,0.098232034,0.116745274,0.084319801,0.253858303
pg364-11,0.0168,0.5779,0.1014,0.066,0.0274,0.0247,0.028,0.0396,0.0599,0.0001,0.0021,0.0051,0.0017,0.0749,-0.1191,0.0088,0.2414,0.2069,0.5517,0.7103,0.7969,0.2759,-0.1773,0.141911919,-0.080134296,0.085557619,0.110059305,-0.073096362,-0.003647472,-0.063883325,-0.025890931,-0.090489852,-0.000386606,-0.016978892,0.0722,0.108198249,0.11669674,0.064010538,0.148528009,0.094620524,0.108394593,0.081028869,0.27852248,0.116250624,0.126572463,0.042699217,0.161322283,0.098232034,0.116745274,0.084319801,0.253858303
pg364-10,0.0189,0.4223,0.0637,0.0733,0.0271,0.0221,0.0276,0.0363,0.0543,0,0.0019,0.0035,0.0028,0.0693,-0.1088,0.0161,0.2759,0.1379,0.5862,0.7025,0.4077,0.2759,-0.1773,0.141911919,-0.080134296,0.085557619,0.110059305,-0.073096362,-0.003647472,-0.063883325,-0.025890931,-0.090489852,-0.000386606,-0.016978892,0.0722,0.108198249,0.11669674,0.064010538,0.148528009,0.094620524,0.108394593,0.081028869,0.27852248,0.116250624,0.126572463,0.042699217,0.161322283,0.098232034,0.116745274,0.084319801,0.253858303
pg364-8,0.0165,0.4452,0.1184,0.0676,0.0236,0.0263,0.0276,0.0332,0.0518,0.0002,0.0022,0.0067,0.0025,0.0699,-0.0826,0.0105,0.2759,0.1379,0.5862,0.6932,0.2727,0.2759,-0.1773,0.141911919,-0.080134296,0.085557619,0.110059305,-0.073096362,-0.003647472,-0.063883325,-0.025890931,-0.090489852,-0.000386606,-0.016978892,0.0722,0.108198249,0.11669674,0.064010538,0.148528009,0.094620524,0.108394593,0.081028869,0.27852248,0.116250624,0.126572463,0.042699217,0.161322283,0.098232034,0.116745274,0.084319801,0.253858303
pg364-7,0.0156,0.4739,0.1321,0.0651,0.0288,0.0224,0.0273,0.0375,0.0508,0.0001,0.0016,0.0038,0.0017,0.0703,-0.0691,0.009,0.2069,0.0345,0.7586,0.6741,0.3697,0.2759,-0.1773,0.141911919,-0.080134296,0.085557619,0.110059305,-0.073096362,-0.003647472,-0.063883325,-0.025890931,-0.090489852,-0.000386606,-0.016978892,0.0722,0.108198249,0.11669674,0.064010538,0.148528009,0.094620524,0.108394593,0.081028869,0.27852248,0.116250624,0.126572463,0.042699217,0.161322283,0.098232034,0.116745274,0.084319801,0.253858303
pg364-9,0.0172,0.4174,0.0871,0.0688,0.0299,0.027,0.0292,0.0406,0.0508,0.0001,0.0024,0.0046,0.0016,0.0769,-0.0735,0.0144,0.1724,0.2069,0.6207,0.6648,0.3821,0.2759,-0.1773,0.141911919,-0.080134296,0.085557619,0.110059305,-0.073096362,-0.003647472,-0.063883325,-0.025890931,-0.090489852,-0.000386606,-0.016978892,0.0722,0.108198249,0.11669674,0.064010538,0.148528009,0.094620524,0.108394593,0.081028869,0.27852248,0.116250624,0.126572463,0.042699217,0.161322283,0.098232034,0.116745274,0.084319801,0.253858303
pg364-4,0.0224,0.4988,0.0505,0.0551,0.0261,0.023,0.0304,0.0422,0.0391,0.0006,0.0017,0.0025,0.004,0.0774,0.013,0.0157,0.2414,0.069,0.6897,0.6685,0.4128,0.2759,-0.1773,0.141911919,-0.080134296,0.085557619,0.110059305,-0.073096362,-0.003647472,-0.063883325,-0.025890931,-0.090489852,-0.000386606,-0.016978892,0.0722,0.108198249,0.11669674,0.064010538,0.148528009,0.094620524,0.108394593,0.081028869,0.27852248,0.116250624,0.126572463,0.042699217,0.161322283,0.098232034,0.116745274,0.084319801,0.253858303
pg364-3,0.021,0.377,0.013,0.0721,0.0279,0.0219,0.0335,0.0493,0.0383,0.0003,0.0024,0.0017,0.0021,0.0872,0.0364,0.0167,0.2069,0.2069,0.5862,0.6703,0.528,0.2759,-0.1773,0.141911919,-0.080134296,0.085557619,0.110059305,-0.073096362,-0.003647472,-0.063883325,-0.025890931,-0.090489852,-0.000386606,-0.016978892,0.0722,0.108198249,0.11669674,0.064010538,0.148528009,0.094620524,0.108394593,0.081028869,0.27852248,0.116250624,0.126572463,0.042699217,0.161322283,0.098232034,0.116745274,0.084319801,0.253858303
pg364-6,0.0169,0.5531,0.0403,0.0732,0.021,0.0254,0.0247,0.0389,0.0499,0.0002,0.002,0.0056,0.0044,0.0714,-0.0791,0.0127,0.3214,0.2143,0.4643,0.6916,0.2551,0.2759,-0.1773,0.141911919,-0.080134296,0.085557619,0.110059305,-0.073096362,-0.003647472,-0.063883325,-0.025890931,-0.090489852,-0.000386606,-0.016978892,0.0722,0.108198249,0.11669674,0.064010538,0.148528009,0.094620524,0.108394593,0.081028869,0.27852248,0.116250624,0.126572463,0.042699217,0.161322283,0.098232034,0.116745274,0.084319801,0.253858303
pg364-5,0.0238,0.4106,0.0613,0.0694,0.0285,0.0231,0.0295,0.0493,0.0452,0.0004,0.0014,0.0021,0.0034,0.0827,-0.0375,0.0194,0.2414,0.2069,0.5517,0.7067,0.5206,0.2759,-0.1773,0.141911919,-0.080134296,0.085557619,0.110059305,-0.073096362,-0.003647472,-0.063883325,-0.025890931,-0.090489852,-0.000386606,-0.016978892,0.0722,0.108198249,0.11669674,0.064010538,0.148528009,0.094620524,0.108394593,0.081028869,0.27852248,0.116250624,0.126572463,0.042699217,0.161322283,0.098232034,0.116745274,0.084319801,0.253858303
pg2149-11,0.0109,0.2174,0.1234,0.0519,0.0284,0.0263,0.0361,0.08,0.0275,0.0015,0.006,0.0188,0.014,0.1424,0.0387,0.0112,0.4737,0.3158,0.2105,0.5957,0.6942,0.1322,-0.0181,0.208915272,-0.078850737,0.153541676,0.085944538,-0.079886628,0.037477361,-0.134991449,-0.024370907,-0.147578871,-0.020200254,-0.029709488,0.04503,0.100451754,0.209507639,0.063523953,0.141435193,0.074642741,0.153498356,0.069743934,0.18719643,0.081116788,0.184893213,0.063540502,0.106766343,0.136857293,0.086659992,0.089868632,0.250297238
pg2149-10,0.0107,0.0425,0.1679,0.065,0.0291,0.0265,0.0306,0.0787,0.0342,0.0006,0.0052,0.0204,0.0043,0.1355,0.0701,0.0079,0.3684,0.1579,0.4737,0.5442,0.3361,0.1322,-0.0181,0.208915272,-0.078850737,0.153541676,0.085944538,-0.079886628,0.037477361,-0.134991449,-0.024370907,-0.147578871,-0.020200254,-0.029709488,0.04503,0.100451754,0.209507639,0.063523953,0.141435193,0.074642741,0.153498356,0.069743934,0.18719643,0.081116788,0.184893213,0.063540502,0.106766343,0.136857293,0.086659992,0.089868632,0.250297238
pg2149-1,0.0032,0.247,0.0329,0.064,0.0271,0.0324,0.0365,0.0708,0.0307,0.0002,0.0038,0.0077,0.0008,0.119,0.209,0.0022,0.0588,0.0588,0.8824,0.5358,0.0406,0.1322,-0.0181,0.208915272,-0.078850737,0.153541676,0.085944538,-0.079886628,0.037477361,-0.134991449,-0.024370907,-0.147578871,-0.020200254,-0.029709488,0.04503,0.100451754,0.209507639,0.063523953,0.141435193,0.074642741,0.153498356,0.069743934,0.18719643,0.081116788,0.184893213,0.063540502,0.106766343,0.136857293,0.086659992,0.089868632,0.250297238
pg2149-4,0.004,0.1983,0.0445,0.0709,0.0234,0.028,0.0375,0.0775,0.0274,0.0002,0.0048,0.0023,0.001,0.1223,0.3022,0.0001,0.1176,0.0588,0.8235,0.5141,0.4186,0.1322,-0.0181,0.208915272,-0.078850737,0.153541676,0.085944538,-0.079886628,0.037477361,-0.134991449,-0.024370907,-0.147578871,-0.020200254,-0.029709488,0.04503,0.100451754,0.209507639,0.063523953,0.141435193,0.074642741,0.153498356,0.069743934,0.18719643,0.081116788,0.184893213,0.063540502,0.106766343,0.136857293,0.086659992,0.089868632,0.250297238
pg2149-5,0.0053,0.1469,0.0423,0.0581,0.0222,0.0318,0.033,0.0721,0.0317,0,0.0044,0.0019,0.0001,0.1114,0.2175,0,0.0556,0.1111,0.8333,0.5242,0.0717,0.1322,-0.0181,0.208915272,-0.078850737,0.153541676,0.085944538,-0.079886628,0.037477361,-0.134991449,-0.024370907,-0.147578871,-0.020200254,-0.029709488,0.04503,0.100451754,0.209507639,0.063523953,0.141435193,0.074642741,0.153498356,0.069743934,0.18719643,0.081116788,0.184893213,0.063540502,0.106766343,0.136857293,0.086659992,0.089868632,0.250297238
pg2149-2,0.0024,0.2752,0.0032,0.0679,0.0273,0.0315,0.0339,0.0735,0.0287,0.0004,0.0033,0.006,0.0012,0.1171,0.2562,0.0008,0.0714,0.0714,0.8571,0.5251,0.0097,0.1322,-0.0181,0.208915272,-0.078850737,0.153541676,0.085944538,-0.079886628,0.037477361,-0.134991449,-0.024370907,-0.147578871,-0.020200254,-0.029709488,0.04503,0.100451754,0.209507639,0.063523953,0.141435193,0.074642741,0.153498356,0.069743934,0.18719643,0.081116788,0.184893213,0.063540502,0.106766343,0.136857293,0.086659992,0.089868632,0.250297238
pg2149-3,0.0037,0.3917,0.0507,0.0469,0.0182,0.0332,0.0302,0.0716,0.0317,0.0004,0.0034,0.0023,0.0001,0.1079,0.2196,0.0007,0,0.1579,0.8421,0.523,0.2311,0.1322,-0.0181,0.208915272,-0.078850737,0.153541676,0.085944538,-0.079886628,0.037477361,-0.134991449,-0.024370907,-0.147578871,-0.020200254,-0.029709488,0.04503,0.100451754,0.209507639,0.063523953,0.141435193,0.074642741,0.153498356,0.069743934,0.18719643,0.081116788,0.184893213,0.063540502,0.106766343,0.136857293,0.086659992,0.089868632,0.250297238
pg2149-8,0.0052,0.1007,0.0781,0.0533,0.0222,0.0292,0.036,0.0703,0.0295,0.0003,0.0045,0.0086,0.0025,0.1197,0.1886,0.0019,0.1176,0,0.8824,0.52,0.2194,0.1322,-0.0181,0.208915272,-0.078850737,0.153541676,0.085944538,-0.079886628,0.037477361,-0.134991449,-0.024370907,-0.147578871,-0.020200254,-0.029709488,0.04503,0.100451754,0.209507639,0.063523953,0.141435193,0.074642741,0.153498356,0.069743934,0.18719643,0.081116788,0.184893213,0.063540502,0.106766343,0.136857293,0.086659992,0.089868632,0.250297238
pg2149-9,0.0054,0.0948,0.1593,0.0529,0.0262,0.0257,0.0474,0.0781,0.0322,0.0001,0.0046,0.0123,0.0021,0.1425,0.1308,0.0037,0.2105,0,0.7895,0.5412,0.1704,0.1322,-0.0181,0.208915272,-0.078850737,0.153541676,0.085944538,-0.079886628,0.037477361,-0.134991449,-0.024370907,-0.147578871,-0.020200254,-0.029709488,0.04503,0.100451754,0.209507639,0.063523953,0.141435193,0.074642741,0.153498356,0.069743934,0.18719643,0.081116788,0.184893213,0.063540502,0.106766343,0.136857293,0.086659992,0.089868632,0.250297238
pg2149-6,0.0049,0.1986,0.0143,0.0427,0.0132,0.0389,0.0326,0.0779,0.0329,0.0002,0.0021,0.0026,0.0005,0.1154,0.1846,0.0008,0.0625,0.125,0.8125,0.5128,0.566,0.1322,-0.0181,0.208915272,-0.078850737,0.153541676,0.085944538,-0.079886628,0.037477361,-0.134991449,-0.024370907,-0.147578871,-0.020200254,-0.029709488,0.04503,0.100451754,0.209507639,0.063523953,0.141435193,0.074642741,0.153498356,0.069743934,0.18719643,0.081116788,0.184893213,0.063540502,0.106766343,0.136857293,0.086659992,0.089868632,0.250297238
pg2149-7,0.004,0.0609,0.0183,0.0484,0.0173,0.0325,0.0357,0.0769,0.0277,0,0.0036,0.0009,0.0009,0.1171,0.2942,0.0006,0,0.0556,0.9444,0.4971,0.6867,0.1322,-0.0181,0.208915272,-0.078850737,0.153541676,0.085944538,-0.079886628,0.037477361,-0.134991449,-0.024370907,-0.147578871,-0.020200254,-0.029709488,0.04503,0.100451754,0.209507639,0.063523953,0.141435193,0.074642741,0.153498356,0.069743934,0.18719643,0.081116788,0.184893213,0.063540502,0.106766343,0.136857293,0.086659992,0.089868632,0.250297238
pg1400-9,0.0164,0.2208,0.1066,0.0832,0.0237,0.0297,0.0404,0.0711,0.0324,0.0003,0.005,0.0047,0.0052,0.1215,0.0521,0.0177,0.1739,0.2174,0.6087,0.6728,0.275,0.2709,-0.0224,0.354312064,0.001658603,-0.077032324,-0.02727573,-0.088138754,-0.017781428,-0.089686909,0.006158827,-0.099454077,0.037239727,0.021328239,0.06503,0.105634126,0.162634888,0.098587132,0.129420534,0.098260772,0.125351226,0.078577012,0.20153431,0.085802037,0.194941733,0.072125469,0.11625888,0.108292073,0.129635235,0.071188203,0.221756371
pg1400-7,0.0199,0.2159,0.026,0.0998,0.0271,0.0292,0.0358,0.0754,0.036,0.0002,0.0056,0.0053,0.0069,0.1223,-0.0044,0.0208,0.35,0.25,0.4,0.7167,0.4479,0.2709,-0.0224,0.354312064,0.001658603,-0.077032324,-0.02727573,-0.088138754,-0.017781428,-0.089686909,0.006158827,-0.099454077,0.037239727,0.021328239,0.06503,0.105634126,0.162634888,0.098587132,0.129420534,0.098260772,0.125351226,0.078577012,0.20153431,0.085802037,0.194941733,0.072125469,0.11625888,0.108292073,0.129635235,0.071188203,0.221756371
pg1400-8,0.0188,0.1954,0.0416,0.089,0.0241,0.0288,0.0367,0.0737,0.0347,0.0006,0.0044,0.0057,0.0097,0.1211,-0.0054,0.0207,0.1818,0.1818,0.6364,0.7412,0.3859,0.2709,-0.0224,0.354312064,0.001658603,-0.077032324,-0.02727573,-0.088138754,-0.017781428,-0.089686909,0.006158827,-0.099454077,0.037239727,0.021328239,0.06503,0.105634126,0.162634888,0.098587132,0.129420534,0.098260772,0.125351226,0.078577012,0.20153431,0.085802037,0.194941733,0.072125469,0.11625888,0.108292073,0.129635235,0.071188203,0.221756371
pg1400-5,0.0153,0.1787,0.1058,0.0878,0.0275,0.0353,0.0403,0.0736,0.0291,0.0006,0.0063,0.0062,0.0061,0.127,0.0996,0.0146,0.1818,0.0909,0.7273,0.6713,0.3832,0.2709,-0.0224,0.354312064,0.001658603,-0.077032324,-0.02727573,-0.088138754,-0.017781428,-0.089686909,0.006158827,-0.099454077,0.037239727,0.021328239,0.06503,0.105634126,0.162634888,0.098587132,0.129420534,0.098260772,0.125351226,0.078577012,0.20153431,0.085802037,0.194941733,0.072125469,0.11625888,0.108292073,0.129635235,0.071188203,0.221756371
pg1400-6,0.0155,0.1304,0.1556,0.0927,0.0262,0.0323,0.0405,0.0762,0.0321,0.0003,0.0061,0.0063,0.009,0.1294,0.0376,0.0159,0.4545,0.0909,0.4545,0.7025,0.3214,0.2709,-0.0224,0.354312064,0.001658603,-0.077032324,-0.02727573,-0.088138754,-0.017781428,-0.089686909,0.006158827,-0.099454077,0.037239727,0.021328239,0.06503,0.105634126,0.162634888,0.098587132,0.129420534,0.098260772,0.125351226,0.078577012,0.20153431,0.085802037,0.194941733,0.072125469,0.11625888,0.108292073,0.129635235,0.071188203,0.221756371
pg1400-3,0.0187,0.1295,0.1603,0.0859,0.0245,0.0323,0.0427,0.0752,0.0335,0.0007,0.0063,0.0061,0.007,0.131,0.0195,0.0199,0.1304,0.1304,0.7391,0.7491,0.7486,0.2709,-0.0224,0.354312064,0.001658603,-0.077032324,-0.02727573,-0.088138754,-0.017781428,-0.089686909,0.006158827,-0.099454077,0.037239727,0.021328239,0.06503,0.105634126,0.162634888,0.098587132,0.129420534,0.098260772,0.125351226,0.078577012,0.20153431,0.085802037,0.194941733,0.072125469,0.11625888,0.108292073,0.129635235,0.071188203,0.221756371
pg1400-4,0.0209,0.1427,0.0999,0.0825,0.0226,0.0297,0.0396,0.0754,0.0356,0.0004,0.0044,0.005,0.0111,0.1248,-0.0358,0.0245,0.3478,0.1739,0.4783,0.7496,0.3685,0.2709,-0.0224,0.354312064,0.001658603,-0.077032324,-0.02727573,-0.088138754,-0.017781428,-0.089686909,0.006158827,-0.099454077,0.037239727,0.021328239,0.06503,0.105634126,0.162634888,0.098587132,0.129420534,0.098260772,0.125351226,0.078577012,0.20153431,0.085802037,0.194941733,0.072125469,0.11625888,0.108292073,0.129635235,0.071188203,0.221756371
pg1400-1,0.0165,0.2242,0.0519,0.0869,0.0286,0.0288,0.0396,0.0784,0.0328,0.0005,0.0053,0.0053,0.0083,0.1291,0.0341,0.0173,0.1304,0.3043,0.5652,0.7539,0.5827,0.2709,-0.0224,0.354312064,0.001658603,-0.077032324,-0.02727573,-0.088138754,-0.017781428,-0.089686909,0.006158827,-0.099454077,0.037239727,0.021328239,0.06503,0.105634126,0.162634888,0.098587132,0.129420534,0.098260772,0.125351226,0.078577012,0.20153431,0.085802037,0.194941733,0.072125469,0.11625888,0.108292073,0.129635235,0.071188203,0.221756371
pg1400-2,0.0142,0.2319,0.0225,0.0825,0.024,0.031,0.0382,0.0799,0.0344,0.0007,0.0047,0.005,0.0058,0.1285,0.025,0.0165,0.1818,0.1818,0.6364,0.7245,0.4283,0.2709,-0.0224,0.354312064,0.001658603,-0.077032324,-0.02727573,-0.088138754,-0.017781428,-0.089686909,0.006158827,-0.099454077,0.037239727,0.021328239,0.06503,0.105634126,0.162634888,0.098587132,0.129420534,0.098260772,0.125351226,0.078577012,0.20153431,0.085802037,0.194941733,0.072125469,0.11625888,0.108292073,0.129635235,0.071188203,0.221756371
pg1400-20,0.0144,0.187,0.0175,0.095,0.0248,0.0299,0.0399,0.074,0.0347,0.0005,0.0055,0.0055,0.0051,0.1254,0.033,0.011,0.3478,0.2174,0.4348,0.7562,0.5106,0.2709,-0.0224,0.354312064,0.001658603,-0.077032324,-0.02727573,-0.088138754,-0.017781428,-0.089686909,0.006158827,-0.099454077,0.037239727,0.021328239,0.06503,0.105634126,0.162634888,0.098587132,0.129420534,0.098260772,0.125351226,0.078577012,0.20153431,0.085802037,0.194941733,0.072125469,0.11625888,0.108292073,0.129635235,0.071188203,0.221756371
pg1400-22,0.0181,0.1913,0.0418,0.0978,0.024,0.0288,0.0442,0.0819,0.0323,0.0004,0.0049,0.0034,0.0054,0.1347,0.0756,0.0164,0.0435,0.1739,0.7826,0.7459,0.3741,0.2709,-0.0224,0.354312064,0.001658603,-0.077032324,-0.02727573,-0.088138754,-0.017781428,-0.089686909,0.006158827,-0.099454077,0.037239727,0.021328239,0.06503,0.105634126,0.162634888,0.098587132,0.129420534,0.098260772,0.125351226,0.078577012,0.20153431,0.085802037,0.194941733,0.072125469,0.11625888,0.108292073,0.129635235,0.071188203,0.221756371
pg1400-21,0.0145,0.2718,0.0417,0.0845,0.0233,0.0316,0.0441,0.0757,0.0339,0.0004,0.0061,0.0033,0.0038,0.1296,0.088,0.0124,0.2381,0.1429,0.619,0.7129,0.4109,0.2709,-0.0224,0.354312064,0.001658603,-0.077032324,-0.02727573,-0.088138754,-0.017781428,-0.089686909,0.006158827,-0.099454077,0.037239727,0.021328239,0.06503,0.105634126,0.162634888,0.098587132,0.129420534,0.098260772,0.125351226,0.078577012,0.20153431,0.085802037,0.194941733,0.072125469,0.11625888,0.108292073,0.129635235,0.071188203,0.221756371
pg1400-11,0.0185,0.1411,0.1255,0.0936,0.0283,0.0321,0.0398,0.0738,0.0339,0.0003,0.006,0.0052,0.0059,0.1251,0.0195,0.0184,0.3636,0.2273,0.4091,0.7332,0.4514,0.2709,-0.0224,0.354312064,0.001658603,-0.077032324,-0.02727573,-0.088138754,-0.017781428,-0.089686909,0.006158827,-0.099454077,0.037239727,0.021328239,0.06503,0.105634126,0.162634888,0.098587132,0.129420534,0.098260772,0.125351226,0.078577012,0.20153431,0.085802037,0.194941733,0.072125469,0.11625888,0.108292073,0.129635235,0.071188203,0.221756371
pg1400-10,0.0148,0.3134,0.0464,0.0932,0.0274,0.0293,0.0358,0.0743,0.0356,0.0007,0.0069,0.0053,0.004,0.123,0.0509,0.0172,0.4348,0.1304,0.4348,0.7115,0.4243,0.2709,-0.0224,0.354312064,0.001658603,-0.077032324,-0.02727573,-0.088138754,-0.017781428,-0.089686909,0.006158827,-0.099454077,0.037239727,0.021328239,0.06503,0.105634126,0.162634888,0.098587132,0.129420534,0.098260772,0.125351226,0.078577012,0.20153431,0.085802037,0.194941733,0.072125469,0.11625888,0.108292073,0.129635235,0.071188203,0.221756371
